{"intercept_": 7.350992023438981, "coef_": [0.0, -0.011158374978648716, -0.012446541893896502, 0.0, 0.0, 0.0017558751711917828, 0.0, -0.0007371212178222524, 0.002500716956105363, 0.001734933576460771, 0.0005036694621075057, -0.0032645178441045144, 0.0, -0.0018068916991657222, -0.004716363225662074, -0.0007108533007064701, 0.0, 0.0025881208285751735, -0.000956387580988135, 0.0, 0.0, 0.005382226343681143, 0.006848965830868961, 0.0, -0.0027780119098430285, 0.004377116943473802, 0.0020045570118070385, -0.01151047601760749, 0.0002353885411260196, -0.012672003900357711, 0.002865217478619686, 0.0008726620675591899, -0.001096000589180747, -0.0019514800328203565, -0.004787823169239127, 0.004566999893347839, 0.0, -0.013694179205351351, -0.0021455565720847735, -0.003646949537028758, 0.002967436320465791, 0.0, 0.0014949476823399538, -0.002501395960458506, -0.009121115111542183, -0.013447567264597131, 0.0, 0.0, 0.0, -0.00035518056604371, -0.004127923119814601, 0.010354151541972542, -0.005909038078810791, 0.0, 0.0035846275891262395, 0.0, 0.0, 0.0048150095870929934, -0.003122947071379394, 0.0, 0.0, -0.0044297079006729466, -0.005409364024007117, 0.0, 0.009795475021155303, 0.0, 0.005787097410416726, 0.0, 0.002632246426542042, -0.002945942677627569, -0.00451625848702843, -0.006808453618077624, -0.005595221433448642, 0.0044591753751564486, -0.01516450618608684, -0.005774713888925559, -0.009940636453993698, -0.012351891823160486, 0.003988219941189616, 0.0, 0.0, 0.0, 0.0, -0.00011473645254112406, -0.030169050025891098, -0.0011751407543684539, 0.0031207039873432678, -0.0022150938342332532, -0.006475821352220781, 0.0, 0.006674695027175787, 0.0, -0.017098230684747515, -0.006149918200747159, -0.004277969265952453, 0.004202051581600673, -0.0003399786609608059, 0.0030688364496094887, -0.005409364024007117, -0.005545971491245335, 0.001990286362400855, -0.0014103988930896335, 0.0, -0.0011058873327456694, 0.0026315678820442705, -0.0005396914251059816, 0.009269550583802875, 0.0, 0.00456173733138205, 0.0012241296304310563, 0.00017204342974577814, 0.00034896991731792884, 0.008997617426859823, -0.004457578086611111, 0.0035397854332411033, 0.0, 0.0, 0.0, 0.010387411791067176, -0.00026035954917036786, -0.005270414591443297, 0.0, 0.0005270168086150036, 0.0019083191758398235, 0.010591972885777162, 0.0, 0.0, 0.005039062428217055, 0.002569677359987047, -0.00018013418986584744, 0.0, 0.008129870828746928, 0.010753990993917724, -0.0013915594975673603, -0.0008457176078023792, -0.010154825269435406, 0.006447906773019987, -0.010457724891624939, 0.0, -0.01338807278416548, -0.0052885082488881305, -0.0023002115769116837, 0.008195115964381645, -0.004657005251250602, -0.004344005403465123, -0.006752363883115902, 0.0, -0.010028583220656867, -0.006689408330693798, -0.006051582928003077, 0.005963841726469317, 0.0, 0.0, 0.0012140332094133007, 0.0018368562884507223, -2.0688433038269125e-05, 0.006384398613485998, 0.0024703582289812374, -0.005140642328453351, -0.004900758236007847, -0.0006042527816629133, 0.0005692397535664167, -0.012933181617828728, -0.0017820084266904788, -0.012760320042898673, 0.006840884918686935, 0.003726735954712077, 0.0, 0.0, -0.0072866963475922185, -0.0005703359568660593, -0.0012978911847133553, 0.00015407488187383083, -0.00457007191922838, 0.002664060693735293, 0.0, -0.006016618294090201, -0.0020194686563628273, 0.0, 0.0015455641065155498, 0.0, 0.015512050388843499, 0.0, 0.005825533293421152, 0.0, -0.0008422261420706442, -0.02627545325608503, 0.003139120078809602, 0.0012241296304310563, -0.0007151883482277608, -0.0035169625692844145, -0.004142855659881708, 0.0014858238406669777, 0.004804610002008389, 0.0, 0.006911206521278368, 0.0, -0.007062733685699871, -0.0022150938342332532, 0.001661666313338394, 0.002574793482077292, 0.0031568924516880473, 0.0029933608394958544, 0.007326658000880526, 0.0, 0.0037793421399967215, 0.004929708739466655, 0.0, -0.0036486328857320417, 0.006791892263621123, 0.00351160459552097, 0.0, 0.00015407488187383083, 0.0005270168086150036, -0.001925014428803767, 0.0002835125626423817, 0.0, 0.0010991326886162197, -0.00457007191922838, 0.003797785170112019, -0.00462781611057252, 0.004440290046133537, -0.004122960855926937, -0.010473199124201813, 0.0, 0.0, 0.003862675570194019, -0.0021237863251405698, 0.0, 0.003207224228751294, 0.0004080875452834123, 0.0019538102274464734, 0.0, 0.0006841895454087672, 0.0012663104691287438, 0.0038290566702375447, -0.017670416839001488, -0.003474355357702696, -0.002652554297153649, -0.013660317461563506, 0.005082928454288247, -0.005774713888925559, 0.0032848310490730275, 0.0018113400906009823, -0.011017691268903335, 0.0019097653166842204, 0.0, 0.0018113400906009823, 0.003543994821207118, -0.005270414591443297, -0.012528171721998166, -0.0019970639999607773, 0.0, 0.0018113400906009823, 0.0, 0.0033031789785777934, 0.0, 0.00011298429794841232, 0.0, 0.0, 0.011399002863766694, 0.004773644045911672, -0.006138525523341739, -0.0022016181257509372, 0.0, -0.004239600304312699, 0.004285258751250731, 0.0, 0.0, 0.0, 0.0, 0.0039038997075563887, -0.004657005251250602, -0.0054912393786295255, 0.0007540174371729083, -0.0009119670054530418, 0.0029017032572169104, 0.004008145813200491, -0.004900758236007847, 0.008129870828746928, -0.011014858743585071, -0.0013854601393922482, 0.0, -0.00579231587841409, -0.0028790855254415162, 0.0036162386150284842, 0.0, 0.008070003467985951, 0.0031388452927756127, -0.0005496329483735149, 0.008573135882742472, -0.006819531414666386, 0.004407298807303493, 0.011876710452319469, 0.004326059589945906, -0.0060918310312138395, 0.012328181152732988, 0.0045811820041496785, 0.0, 0.006648886397654139, 0.0, 0.0018809515467880214, 0.0, -0.02299383584208628, 0.01260360758753195, -0.004985423091009879, 0.006319674410651635, 0.0, 0.006412065534708585, 0.0, 0.0034204786851114084, -0.013471337376832112, -0.016963021779820793, 0.0009624659541363831, 0.012099376653065536, -0.0006843976238020289, -0.006883621613170563, -0.001469221679874243, -0.001296358350569349, 0.005349902831959951, 0.0012168954280764616, -0.00021281796419393598, 0.0, 0.017647347918754587, 0.015343655767380487, 0.0, 0.0008099126817401401, 0.0006841895454087672, 0.001260144185215156, -0.005885787974535753, -0.003368943208290623, 0.0, 0.0, -0.009121115111542183, 0.006100393953830818, 0.0017124558416178747, -0.0037805633288903497, 0.003590451401328105, 0.009071687363849256, -0.0044621102158065, 0.0, 0.0033695596917619297, 0.007451571735036293, -0.002874535417065402, -0.005409364024007117, -0.002009776852393919, 0.0, 0.005237681230735539, 0.0013124430025974693, -0.003368943208290623, -0.0029982772626749093, -0.008317314162968858, 0.0, 0.0012611202744948885, -0.0015350457349580687, 0.0, -0.0007820132832043775, 0.004955106340324291, 0.0, -0.008568997129708959, 0.0, 0.0, -0.0071421655575279065, 0.011734072450758921, 0.008280023317345512, 8.53471588528432e-05, 0.0010841640943025882, -0.00750541540281695, -0.014648986207311298, 0.007540711858467941, -0.036972888866740605, -0.0018834192150549353, 0.0018198199862708788, -0.0008008285016039716, -0.00515817085102609, 0.005050120489283656, 0.00645938789337938, 0.0009825358273574344, 0.0, -0.00311586136587963, 0.0018347732869980198, -0.00879633714958917, 0.008117558998990656, 0.0, 0.0, 0.0021615356570295775, -0.00623287205652321, 0.010000829160994108, 0.0, -2.1898631693533215e-05, 0.0, 0.0012457130684742585, 0.0, -0.006632965047666716, 0.0034514507559841655, 0.0009759044966993588, 0.003862675570194019, -0.0011058873327456694, 0.008507274117435362, 0.003635745625499011, -0.004544855815691143, -0.006154493393618164, 0.01642945929373251, 0.0, 0.0009935754277088924, 0.00188604530724522, -0.0009364998143373904, 0.0, -0.00945735830295647, 0.0, 0.0, 0.0, -0.009946208469679333, 0.015110272195509573, -0.000417215332568713, 8.570249720782641e-05, -0.018188944942778073, -0.0001446197216455865, 0.0005426034419641711, -0.005409364024007117, 0.0018718831659324828, 0.008880902097835505, -0.0011386726839418405, -0.0022016181257509372, -0.011219193212893795, 0.0072977462435751764, 0.0, 0.015482243994909661, 0.0034360477042611835, -0.010668280683067341, 0.007326179475331607, -0.005607599163088907, 0.006116410268873019, -0.0038800584757119247, 0.0026936620826402977, 0.0, 0.0069148132942009255, 0.00012440160638589666, -0.004657005251250602, 0.0006934954238540764, 0.01579872280482373, 0.001900423692603378, 0.0, 0.0, -0.0002506355843487123, 0.0, 0.0022476640313888845, -0.012771490571008456, 0.0093816971749557, 0.0, 0.0, 0.0, 0.0, -0.001868773102456231, 0.0, 0.004499854424380753, 0.002865765697927713, 0.0, -0.0007915641404188926, -0.009687333289959573, 0.002065124787329045, 0.005079915716012869, 0.0010608541095185348, -0.003368943208290623, -0.011679123769872648, 0.008564313230120984, 0.0013561272049219183, 0.0, 0.0030115575271239597, -0.006899944060466898, 0.0, 0.0007141430295376207, -0.00022319840802119772, 0.0027451314032231697, 0.0, -0.016434056532884926, 0.0039890559017562895, -0.0003436160261245456, 0.006000116162914541, 0.0, 0.0023204959542655933, 0.002797856342083725, -0.0005955672027763469, -0.0005484756172492158, -0.0315888841907587, 0.0, 0.005646435989678295, 0.01363752876211312, 0.0, 0.0, -0.007614665241152614, -0.0035299376058060858, 0.0, 0.0016841201174204647, -0.00021625376243301225, 0.002497668114414137, 0.0, -0.0010544283039522545, -0.006464728075309727, -0.00398727217521657, 0.0, 0.0001111283497239119, 0.0026641668551122444, 0.005417886226513197, -0.009121115111542183, 0.0, 0.0, 0.003244084234800378, 0.009162243742794137, 0.005550062946931782, -0.00338710672437814, 0.0, -0.0007687347266896444, -0.001015566551512384, 0.002776967526030413, 0.0, 0.0057995244145157355, -0.00457007191922838, -0.002693736413538336, 0.004163790907831118, 0.004078376286571669, -0.001052661854891496, 0.0, 0.0050307674693375656, -0.00491079473052746, -0.004277969265952453, 0.0030182306098967353, 0.0, -0.00474424963090768, 0.0004953201702761436, 0.0, 0.002142348084821143, -0.010181209321970764, 0.0, 0.0010263019128000934, 0.0, 0.0008326821528959913, -0.0017125481782897618, 0.0, -0.00884697690008954, 0.002142532943036883, -0.002290840656330683, 0.005391363433944876, -0.0026080592886506314, 0.00748208130411538, 9.174353759993917e-05, 0.0, 0.006395194965182713, -0.0015346052817758404, 0.0006841895454087672, 0.0003621701549249126, 0.0, -0.006198125318894635, 0.0, 0.008573135882742472, 0.0, 0.0, 0.0, 0.011718206976639181, -0.0022150938342332532, 0.0, -0.005045882516247829, -0.005909038078810791, 0.003554785840196384, -0.0012958408447061088, 0.002176627565328373, -0.0010905428268269401, 0.006845712497050183, 0.0, 0.007112001941312595, -0.0006908606553501412, 0.008998164301262492, 0.006662968159227341, -0.0022156698616106136, 0.0, 9.174353759993917e-05, 0.005839402769034376, -0.0025346626493809974, -0.0005889179012230792, 0.013253274283490156, 0.0, 0.0007653993080918405, 0.0, 0.0054200039398904715, -0.008632424003540865, 0.0, 0.0, -0.013341818246700197, -0.0027667331604636844, 8.153981155489813e-05, 0.0023976339302412466, 0.0, 0.0, -0.001119502778417769, 0.0, -0.0012072284920946672, -0.0019796474766884116, 0.008578464053298873, -0.00451625848702843, 0.0002468318248227402, -0.003985438747567988, -0.00998341999109385, 0.011773580397985251, -0.014303477674368636, 0.0, 0.0046722937378782655, -0.00919660461713003, -0.00148317303391663, 0.0, 0.0011883836728723007, 0.0, 0.006603603246616688, -0.0019796724674952504, 0.0, 0.0005307738296103821, 0.007277443952824362, -0.003964254572848364, 0.004376608872025052, 0.0020627402642692957, 0.0070891142731288005, 0.0005292104020401999, -0.0007687347266896444, 0.0020045570118070385, -0.0008246820772016861, 0.0, -0.00032784160733433256, 0.0025347931081428493, 0.0, 0.0, -0.0007915641404188926, 0.001619267620532615, 0.003372747793939282, 0.004275121249634714, 0.011616115447077692, 0.0026641668551122444, -0.0013657045020617057, 0.01680682885115453, -0.001055185532993828, -0.010547973072547906, -0.005545971491245335, 0.0032948116544239785, -0.0012669352207477444, 0.0, 0.0, 0.010369760439325918, 0.0, -0.001162565221038864, 0.0, 0.01218039516841591, -7.283077581612341e-05, 0.006270095662011128, 0.009279792881535607, 0.008017949968499801, -0.0038809987230729436, -0.009131665351329171, 0.0029262037511629656, 0.02908887402528423, 0.006987415770434947, 7.313795254780034e-05, 0.0048109000490146655, 0.009084508144524075, 0.0012773619087371173, 0.0, -0.006579414572205862, 0.0, -0.0006603041364286723, 0.0006640561187115607, 0.0004909976323165302, 0.0, 0.0, 0.0, 0.0, 0.0, 0.0029933608394958544, -0.008161280379462873, 0.0, 0.0002942459262030402, 0.0, 0.0037658332905904646, -0.0010630454338101608, 0.0, 0.006442622488354658, 0.013434375754430542, 0.0027612819789466546, 0.0, -0.0027434375165258777, 0.009959400616061728, 0.0008106706479127238, -0.009136479404605923, 0.0016111809029175925, 0.0017416130839373247, -0.006249407451698998, 0.004314391001553908, -0.01957923660812288, -0.0006230150235771191, 0.004229079415086055, 0.008932727790702888, -0.006331348712016038, -0.007926719805991215, -0.014574488376514556, -0.001038768260708653, -0.001015566551512384, -0.002698159166112317, -0.00425086821585331, -0.0014627380268293219, 0.0009633976250645906, 0.0034288454388548516, 0.0, 0.0, 0.009801188071501309, 0.0013775640975953246, -0.0028872068137155865, 0.0, 0.0, 0.006314698252117835, 0.0, -0.006375010616340516, 0.0, 0.0026313282343853653, 0.0, -0.0042425256121102544, 0.02182008811672994, -0.00284725539134672, -0.0015523093641438852, -0.0026110600010770466, 0.0057498518076169024, 0.0, 0.0, 0.004597435736172379, -0.01302242968097654, -0.015120907925799286, -0.0038965588214214526, 0.002819392115808159, 0.0, 0.004210792106119788, 0.003207224228751294, 0.005982176031358593, -0.0035169625692844145, 0.014077472539328038, -0.005821723258646099, 0.0, 0.0023356240642065876, -0.001991970349714046, -0.0031924757676986075, 0.0007319208003166228, -0.0040381866572539345, 0.004269941915837958, 0.004236644957112745, 0.0052403303010237785, 0.0, 0.0035179399375156704, -0.02437684146596839, 0.0, 0.0, -0.0020519136746296406, -0.0017068723018921906, 0.0, -0.005699705533594602, 0.00834011972513974, 0.0, -0.00459049782105199, 0.0, 0.0005410525662457533, 0.0028326916188730266, -0.00524002329767956, 0.00523905822249769, 0.006910986611866008, -0.001052661854891496, 0.009466134144857639, -0.01248018968178346, 0.0, -0.0009564721818920331, -0.004213224629159769, -0.003368943208290623, -0.0019928383961383563, 0.004080231363549129, 0.0, 0.008129870828746928, -0.011563807905988465, 0.00736215270758812, -0.0015189039780245037, 0.013222401460382, 0.0, -0.007276803629924962, -0.0011281146683592097, -0.013152821592800706, 0.0009211179977710155, 0.0037658332905904646, -0.007871571796727695, -0.003504452914465563, 0.0011883836728723007, -0.015433504440333656, -0.004073006805607586, 0.0, -0.005545971491245335, 0.0, -0.0015085607159719533, 0.004078376286571669, -0.004756141706596934, 0.004151540277814735, -0.019354196883657974, 0.0, 0.0029933608394958544, 0.009730702091134798, 0.0, 0.0015975795568576058, 0.002521765079114622, 0.031139976590566797, 0.004269941915837958, -0.012396153867009072, -0.0073865089917669385, -0.005268053889438856, 0.0, 0.0, 0.003977281204002969, 0.008390010999825745, 0.006785185570344528, 0.004894414013560482, 0.0021684754368994723, -0.002589804911334587, 0.005943302688062455, 0.00169866580742645, -0.003367420434639851, 0.004460328501709035, 0.005783862400481529, 0.0, 0.0, -0.005418040446494254, -0.004885728026233758, -0.008632628645325529, 0.00016983210531549295, 0.0, 0.0007653993080918405, 0.0, -0.008273296320994343, 0.0, 0.006207011136733927, 0.008195115964381645, 0.009160939798909556, 0.0011297611030321034, -0.021115671014128253, 0.0031639237794286773, 0.0006515084752796469, -0.0005420698362470261, -0.007500891878279676, 0.0030521716004209705, -0.0014352598303641654, -0.00451625848702843, 0.00207584658223212, -0.0008218035491911471, 0.0020697923229069156, 0.0012168954280764616, -0.00505480579654428, -0.007038149677232118, 0.0006640561187115607, -0.0016297978787178364, 0.0018675173813696702, 0.0, -0.000816342753148973, -0.0013144832289084289, 0.010330102761600742, -0.001403885830605883, 0.0, 0.0025185667040531164, 0.002433087999394054, 0.0003565570489100849, -0.018279768982608326, 0.0028066303644293067, 0.014993561152552671, 0.004739448764722845, 0.0, 0.0, 0.008099460569395747, 0.004327228965647913, 0.0030521716004209705, 0.0027612819789466546, -0.002874535417065402, 0.0, 0.0076946431346315665, 0.000471733276319154, -0.0023677278878540607, -0.0009966475763391249, 0.0, 0.001985054433769761, -0.0010031066344494827, 0.0, 0.0019062222474121183, 0.0, 0.009496110780823259, -0.004987352979708282, -0.004807299514543203, 0.0, 0.012071661682298776, 0.0026739439404008056, -0.0008050432164459602, -0.011090003885973133, 0.005982176031358593, 0.005914078703142132, 0.0, 0.003199697771660351, -0.0029024135162289263, -0.004657005251250602, -0.009600033572016664, -0.016545960007451854, 0.0, -0.010363079029660471, -0.0048570570577327315, -0.0030948934984460995, -0.00012269274711183598, 0.0, -0.002983602447292076, 0.009917851468152128, 0.0, -0.003085266686179922, -0.0066396252542445236, 0.005277055635856731, 0.0013504320006854052, -0.004415307402316704, 0.009882033387431976, 0.009801188071501309, -0.003607104999337577, -0.002472687983638339, -0.010068610997546738, 0.0, 0.0, 0.009820884336590185, 0.004806690870874732, 0.0050183162546326345, 0.004679384870638354, 0.0005844910811836439, -0.0017716991201627275, 0.0001111283497239119, -0.0037827491746552037, -0.00750541540281695, 0.004756089561721226, -0.01280669780253695, -0.001162565221038864, -0.007341884398420994, 0.0029128719511337035, -0.002090200291257935, -0.006808176642729261, 0.00855524765219626, 0.0, 0.009501155599902082, 0.0074971862020229, 0.0, -0.004551134961598931, 0.0, 0.004710460312548453, -0.005826136022262325, 0.019793369780130972, -0.007005747617703398, 0.0, -0.003376980555107507, 0.0, -0.005658422698048828, 0.007495134945925803, -0.0024351831147561964, 0.0007653993080918405, 0.0015252392368356293, 0.0, 0.0062762450525388775, -0.007515717920827741, -0.0019310600035924478, -0.00642261501981162, 0.0015381938886816337, -0.004031794342995737, 0.0006841895454087672, 0.0, -0.0013097456451591223, 0.009253182941356006, 0.0006195846176457825, -0.0003080576555144607, -0.01062725423611839, 0.002801014377834559, 0.009719809776897983, -0.012120835420001638, 0.0, 0.0, -0.0062882599692742945, 0.0, -0.022951524884075765, -0.001052866930835871, 0.0005560457055099129, -0.00021625376243301225, 0.0018380107791323252, 0.00012663712727877855, -0.004626464466774429, 0.008573135882742472, 0.0, -0.013341818246700197, 0.0022476640313888845, 0.0, 0.0016040132248281783, -0.003595362703752448, 0.0, 0.0, 0.004131947362547474, 0.0, 0.004236644957112745, 0.004597435736172379, 0.001449628431062865, -0.002464587882905562, 0.002244067747859809, 0.0, -0.00042177385133763446, 0.0, 0.0058618584262032005, -0.0046169938458932415, 0.0, 0.008292181052178408, 0.004739448764722845, 0.00838184954285351, 0.00732144256937972, 0.0053159110662222165, 0.0, -0.006875709912009294, 0.0032484957068102493, -0.004416979211373475, 0.002124466745986015, 0.0, 0.0006798409397064714, -0.010026932838768212, -0.0028626379324683867, -0.007846868196451227, 0.00044597666898293296, -0.002697691881046139, 0.014253529778500496, 0.018259178074804032, -0.008926021361197781, 0.002176627565328373, -0.01918037828186578, 0.006674695027175787, -0.010908755928703497, 0.0013124430025974693, -0.004820825138251345, -0.005802494198533006, 0.0, 0.0, -0.015908520485077193, 0.008603125931928569, 0.0023976339302412466, 0.0010991326886162197, 0.009430187016151335, 0.0010991326886162197, 0.0, 0.0110034764732378, 0.006257887911437123, 0.012923711093686265, -0.0019407733654226084, -0.010221609587737561, 0.011010570503219283, 0.006301669415754058, -0.011148264580993675, 0.010314298414171042, 0.0018809515467880214, 0.0, 0.0, 0.0034935446339534257, 0.0, 0.0, -0.011937292429110952, 0.005597127099721588, -0.005445334719583502, -0.005531091709340489, 0.0, 0.004175511744763727, 0.0032948116544239785, 0.004236644957112745, 0.0029933608394958544, 0.006815171796061758, -0.0034121665830112897, 0.007082815523485122, 0.0016598932820342212, 0.0, -0.018948726292721513, 0.0, 0.001654150554323632, 0.005637084860523368, 0.012309032123228522, -0.0075993269559608756, -0.01605634141453958, 0.0042306503654298555, 0.0015874197458196951, -0.0006612314057922985, 0.004739448764722845, 0.0, 0.00284434917185261, 0.000772410514223373, 0.015842297187559796, -0.0005703359568660593, 0.0, -0.00017204342974577882, 0.0, 0.0025881208285751735, 0.020817077704213025, -0.0016429237107761828, 0.015418750529480758, -0.009121115111542183, -0.0033468407203676373, 0.0047822604668088355, -0.004824873984508202, 0.011610026982753374, 0.0026164034481037744, 0.0, 0.0037658332905904646, 0.006483844665056297, -0.002529286650270041, 0.0010897344452227397, 0.0, 0.0009950774841255444, 0.0, 0.004089271503139978, -0.002959489452438788, 0.0, 0.0, 0.005897168163379054, 0.0, 0.004002265793920741, 0.006367162758112904, 0.0, -0.00011473645254112406, 0.0, -0.008802538132033437, 0.002309157205279725, 0.003797531360194712, 0.0, -0.0006871620172022135, 0.007964038884275212, 0.0032709899213550675, -0.0027438145625911826, -0.0004712769052820078, 0.011289365868398973, 0.0022476640313888845, 0.0, 0.0, 0.0028326916188730266, 0.0032908775736053253, 0.003906894429786432, -0.005688902856476911, -0.0026080592886506314, 0.0012895765179928187, 0.005783888871298001, 0.0, 0.0, -0.006283879929849247, -0.0009230069860888052, 0.022243139419512094, -0.003780294816007993, 0.0, 0.011829079756934303, 0.0020415183333414716, 0.0, 0.006980742241542916, 0.004117072446245316, -0.004626464466774429, 0.003829320692014564, 0.0046517568847195675, -0.004415465307291319, 0.003726735954712077, 0.00022580570177523058, -3.123901749652893e-05, -0.013817665035441545, 0.007245644401492239, -0.00308792005233445, 0.00019489503544409798, -0.004743425192872672, -0.00459049782105199, 0.0019698689927364972, 0.0, 0.0, 0.0, -0.0022161377053917485, -0.008898399356045706, 0.004548055600854824, -0.0015982306670534359, -0.0005384191128697375, -0.003009399185181439, -0.015550627898459448, -0.002251764960550759, 0.0, 0.0, -0.001991970349714046, 0.0, 0.0, 0.0014946101763436317, 0.0027786680433175416, 0.00716042546029783, 0.0, 0.00013277226363890926, 0.0, 0.0, 0.0007139326535252092, -0.010339137919163719, -0.002110272944928674, 0.0024266256739525873, 0.0, 0.0012773619087371173, 0.005538284376760897, 0.003671986262442888, -0.006550594436934397, -0.015890268803245705, 0.003472744277815239, 0.01060127089372282, -0.012139254553180491, 0.0, -0.007515717920827741, -0.00028849720488729146, -0.004743425192872672, 0.0, 0.00019533854779073801, 0.0, 0.0, 0.001104893464186433, -0.004768547960351767, 0.017825609992192962, 0.0, -0.007507911872235556, 0.0029203326600025893, 0.0, -0.016077644707074477, 0.000721165566555892, 0.0006841895454087672, -0.011904581657568624, 0.0, 0.0020032753052100366, 0.00019489503544409798, 0.0, 0.003642523261173415, 0.0, 0.0035397854332411033, 0.0030168991813110434, -0.00032784160733433256, 0.0, -0.0013781000836417681, 0.0, 0.0069031327373763295, 0.006043851648468582, -0.0061970105562921644, -0.00484687656287227, -0.0071421655575279065, 0.01205809899986421, 0.007225655628529481, 0.0066884627017858396, 0.0030975556681693103, 0.0006127315122089041, 0.0, 0.0, 0.0, -0.0014559204390717278, 0.010614654216083942, 0.011355549118116622, 0.0031962377096177246, -0.0018443114816172178, 0.0, 0.0005270168086150036, 0.005879231587607817, -0.002360929724343231, 0.012583727882688347, 0.001887657307488426, 0.0021890849716411495, -0.0038219789329673763, 0.00018645244121322672, -0.0012978911847133553, 0.0, -0.02626764681251221, 0.001077416121278994, 0.0054977800877520095, -0.009250830234115099, -0.005289991091135707, 0.0, -0.0005955672027763469, -0.003260044973266993, 0.0006127315122089041, 0.016318476880796174, 0.0015828357527552304, 0.0, 0.005963841726469317, 0.0, -0.00011473645254112406, -0.006154493393618164, 0.005607840743899658, 0.007412171784059441, 0.0, -0.006580822939899501, 0.0, 0.0020840797212855065, 0.0032908775736053253, 0.004524020196163136, 0.0011883420950970006, 0.009910800659996744, 0.005180323526641854, -0.004746100237783758, 0.0026453905486740247, 0.0018809515467880214, 0.0, 0.0, 0.007343925462500392, 0.0, 0.0, -0.00598850030337409, 0.011265276182358685, 0.010618140847011449, 0.004667593009821365, 0.0, -0.0061343101775052575, -0.00083179557737415, 0.009664014297620753, 0.004108885395650588, 0.004955598268894165, -0.0036242745973715496, 0.0020415183333414716, 0.00498454961140216, 0.0, -0.00401114559591288, -0.004710383121016984, 0.0, 0.005981026251470338, 0.0, 9.174353759993917e-05, 0.0, 0.0005043672652390222, -0.002874535417065402, 0.01039295586901335, -8.28635715947623e-05, 0.002649868945656208, 0.0007855299947703202, -0.006487661516198761, 0.0001983576485592258, -0.0075813733380705045, 0.0018113400906009823, -0.003788645663738034, 0.009501155599902082, 7.658826920240991e-05, 0.0, 0.008166562541157557, -0.001919041290339711, 0.0, 0.006959129732095779, 0.0, 0.0, 0.0, -0.006359833132595524, 0.00019489503544409798, 0.009598509524832427, -0.0007889108030671385, 0.004149057035478625, 0.006479207395913808, 0.0, 0.0029933608394958544, -0.0030860307993442796, -0.0027827918794654637, -0.006557882814356677, -0.006037977021079116, -0.009385561502380823, -0.0045875100735613804, 0.0, -0.006808453618077624, 0.0, -0.007218283867097962, 0.0048028734983210945, 0.0029933608394958544, 0.0, -0.0011058873327456694, -0.006102105576457043, -0.000999227801573351, 0.0, -0.009470997644375444, 0.0019062222474121183, -0.0033508569907942094, -0.011787699709074046, -0.005409364024007117, -0.017147981410505796, 0.0, 0.0019393471449908337, -0.0007915641404188926, -0.003717609801049446, 0.0, 0.0050058056431486, 0.002500716956105363, 0.0, 0.002038669281326602, 0.006720096794207931, 0.002433836638237328, -0.006416585232211525, 0.00948235536542801, -0.008008259617546129, 0.004035780427275204, -0.007270160815755184, 0.0018941325415616857, 0.01692926503241473, -0.014861796841685086, -0.0035154652741386837, 0.0027090020495793396, 0.0, -0.0005004753926449697, -0.0016046561716067727, 0.008483831560888083, -0.004232303275929621, 0.0, 0.0, -0.0026080592886506314, 0.0, 0.0, -0.010672610222794372, 0.008667393760252027, -0.004222593599079686, -0.0032104324057301765, -0.0013332251131011605, -0.001469221679874243, -0.001066584643354945, -0.0020857530504064426, -0.016566894849606602, -0.009082217068283636, -0.017330526493758994, 0.007900843441256921, 0.0, 0.0, 0.003410489332318906, -0.01165979301682162, 0.00013706836859090255, 0.008615538078691714, 0.0032948116544239785, 0.0, 0.013723902262602887, 0.005716378919633651, 0.005210001237021304, -0.0055885450703120915, 0.0009323591146752812, 0.0005818362994033069, -0.0020104789277060973, -0.0005274794050746331, 0.01889738265123588, 0.0, -0.005590250221270662, 0.0, 0.009501155599902082, 0.0, 0.0, -0.00017204342974577882, 0.0, 0.00813162479738034, 0.0011053184789912946, 0.005783888871298001, -0.0034212133888807043, -0.0025346626493809974, -0.0015849735788041857, 0.0, 0.0034350436155644046, -0.0023716414661649403, -0.01085088542433512, -0.013256730034669078, 0.0031116594175035718, -0.015859066207499373, 0.00718830513373096, 0.01695219133594673, 0.0020415183333414716, 0.002801014377834559, 0.002785377674104122, 0.0045443671758943986, 0.0, 0.0041103702002518346, 0.0026641668551122444, 0.005605954717028666, -0.002529286650270041, 0.0, 0.010921979525890444, 0.0007653993080918405, 0.0027443292087475707, -0.004758479779747458, 0.0, 0.0, 0.0, -0.007885148419737779, -0.000877041008266026, -0.00017204342974577882, 0.0017141366821920938, 1.5227736507733533e-06, 0.008035652749885991, 0.0065911558138266515, 0.01615007503408996, 0.0, 0.0, -0.008911220818072768, -0.014482185977385825, 0.0007591204176454253, 0.0, 0.0007647694180138382, 0.0, 0.0, -0.0032547103747068503, 0.0, 0.003179487621796951, -0.01685242397118648, -0.009428772856668667, -0.004752975884280919, 0.0026641668551122444, 0.010623773578461154, -0.008097372509522622, 0.0, 0.00016198832210767195, -0.00408195914936309, 0.0039916164031598795, 0.0026641668551122444, -0.005802494198533006, 0.01388334944069376, -0.005366440216449792, -0.011348465689778344, 0.0, 0.0, -0.006487664773520653, 0.018050812729680153, 0.0007842187876707298, -0.00623287205652321, 0.0, 0.0010991326886162197, 0.0, 0.0030521716004209705, -0.00750541540281695, 0.001887657307488426, -0.0036655287272009274, 0.0, 0.0018941325415616857, 0.0030521716004209705, 0.005230678200512737, 0.0, -0.012102011499407877, -0.007355169073779592, 0.0, -0.004743425192872672, -0.0007108533007064701, 0.010695273524734022, 0.001185625605372594, -0.010931670982360796, 0.0, -0.0009775919022822076, 0.0045314323797704045, 0.0012773619087371173, 0.004710460312548453, 0.0, -0.001732144219454014, 0.001691150271801121, 0.0, -0.0032531875358142643, -0.005796671225694656, -0.00564958782245507, 0.004428988510003492, 0.016325893298255435, 0.006688901432784384, -0.0008822689845356779, 0.0, 0.00038020839542105754, 0.0, 0.0007095436273420225, -9.165758227893386e-05, -0.019357560399521793, -0.00623287205652321, 0.01317482236154886, -0.0063848882556729524, 0.0005270168086150036, -0.0019310600035924478, 0.0, 0.0034451091616995483, -0.008540950070782274, 0.001975245010582171, 0.0, -0.002874535417065402, 0.009033645760407872, 0.00275106196068348, 0.0, 0.0, 0.0009387973611189969, 0.00561252115718122, -0.0011696587773908297, 0.0008939264824788206, 0.0, 0.012453587615426554, 0.004739448764722845, 0.0010467771385346781, -0.00457007191922838, 0.0, 0.0, 0.0012611202744948885, 0.002082995855279164, 0.003667312492736705, 0.0013179129394552903, 0.0011582122507661403, -0.010677111299889562, 0.007213399041054398, 0.013480147441844545, 0.0, -0.0038047008759806117, 0.003802468085280955, -0.003643743037465993, -0.005409364024007117, 0.0004927463707451577, 0.011485931804665755, -0.011812690910004676, -0.003751303792285172, 0.0, -0.009498272787239118, -0.009121115111542183, 0.0045811820041496785, 0.0, 0.003101851213340469, -0.013361723117725386, 0.005716772218438712, -0.010630022215074943, -0.0014457729200323345, 0.003179487621796951, 0.0014978549080346404, 0.009729273643470761, 0.0, 0.0, -0.0015506759454528606, -0.011790286673201443, -0.009376237525745948, 0.0, -0.0032659923709285723, 0.008129870828746928, -0.012053024220639587, -0.00018117367761634478, -0.0051507469821561016, 0.00017155539597938892, 0.0, 0.00880531660222403, -0.0023677278878540607, 0.0010057035454383394, 0.0, 0.0, 0.005216111456850069, -0.008756182477780783, 0.005504558406396917, 0.0, -0.0005890518284128451, -0.0131289347354631, 0.0037636741324153736, 0.0017048585483093878, 0.009805477107691257, 0.00425311587033155, 0.0023940996822923504, 0.006852410524685646, -0.009600033572016664, -0.0009278175173639417, 0.004579727687550723, -0.01109777818141827, 0.0, -0.0048760137694609075, 0.006064363324469038, 0.00021654294384852854, 0.019204901149551503, -0.0023398522698086996, -0.011527918171599098, 0.010064234209858353, -0.008801683132881807, -0.002054570753805373, 0.004236644957112745, 0.0, -0.009121115111542183, -0.02299383584208628, -0.0023677278878540607, -0.007838787812234656, -0.005718276126902082, 0.0035397854332411033, 0.011419288340864427, 0.0, 0.014352731439134611, 8.570249720782641e-05, 0.0, -0.007546734829823736, 0.005028209097531634, -0.0015464333583188458, 0.0, 0.0, 0.008889262492797832, -0.0041543461781667615, -0.004968678488880294, -0.010655239932086205, -0.011522266067515722, 0.004348287942294072, 0.0, -0.0032504611365840163, -0.007796872890221145, -0.003805620851779493, 0.012060891334102562, 0.003852864282244317, 0.008784737900772095, 0.0030521716004209705, 0.006000116162914541, 0.00650340573819725, 4.5641178371320514e-05, 0.003966662229413753, 0.0, -0.0053046650395978685, -0.004712745800155216, 0.0006824695495789906, 0.0, -0.01878771775338204, -0.010480409750499608, 0.0, 0.0, -0.023216806373461022, 0.0, -0.003920320370711031, 0.004739448764722845, 0.0, 0.001691150271801121, -6.17062919980122e-05, 0.0, 0.0, -0.0043205097180202025, 0.002396684160871273, 0.0034266430522524607, -0.0036352965431525478, 0.015838094888309645, 0.0009935754277088924, 0.0026936620826402977, 0.00012440160638589666, -0.014544311604565676, -0.0010827967217642456, -0.003765706524370234, 0.0, -0.0016857179339228538, -0.0040139790738756365, 0.002733451990934308, -0.003046141522468841, 0.0004477877300090939, 0.0, -0.006126226931124844, 0.0, -0.00373104528137796, 0.0, 0.0030521716004209705, 0.011364402375039741, 0.0, -0.010029296132850887, 0.01982937449874898, 0.004874819001158813, 0.0, 0.0007662249496498376, 0.003799465934036276, 0.0, 0.0015557299088596584, 0.0003888857720054604, -0.0013318158935464997, -0.013313678300028818, 0.00701618379059614, -0.00016550403750067777, 0.0, 0.021655766026212574, 0.0072579941324286325, 0.002608005082223228, -2.0688433038269125e-05, -0.0069567650501102495, -0.011790286673201443, 0.008234859577947944, 0.0020415183333414716, -0.0072824785978646035, 1.5227736507733533e-06, 0.0021158148828449787, -0.0054399473414742374, 0.0, -0.007616064575786129, 0.004212051417511173, 0.006793692648580267, -0.022343094611695705, 0.0121987617880855, 0.0, -0.007667825971404024, -0.006436094846791367, -0.006966785462353961, -0.0013123912221935815, 0.0, 0.0030641644395314766, -0.016360358592429822, 0.007509494100778166, 0.0, -0.017639087345002386, -0.010931670982360796, -0.013152821592800706, 0.0, -0.0007449929489305639, 0.0, 0.0017993522314142054, -0.0035154652741386837, -0.00036211164176398183, 0.006142253258121118, 0.0, 0.013173141862344981, -0.0009278175173639417, -0.008776686032384368, 0.0, 0.0, 0.03286437625770138, -0.007061998381162015, 0.0, 0.0020840797212855065, 0.003346154256713543, 0.003570034720767088, 0.003847612408208267, 3.669171241061512e-05, -0.0007003475364940056, 0.010893147737273299, 0.008483831560888083, 0.00022192859192687753, -0.004132358045965791, 0.005702231616555536, 0.0017923937925696956, 0.0031388452927756127, 0.0, 0.0, 0.0056250353666869165, 0.0, -0.0004906173689434404, -0.006580822939899501, 0.006674695027175787, -0.00035670543947306283, 0.00368007171599577, -0.001162565221038864, -0.0012978911847133553, 0.0003935540910925903, -0.0025507821738204547, -0.00598850030337409, 0.004910018142554792, 0.005982176031358593, -0.005898929580547193, 0.0, 0.008483831560888083, 0.0, -0.009661717336091457, -0.002667139697982588, 0.008776906638348504, 0.002868468335412832, 0.0006503505964243381, 0.005031659588028996, -0.007038149677232118, 0.00416310903819952, 0.0035983933619178885, 0.0061383634287671286, 0.004173063049505842, 0.0, -0.00038121023704137485, -0.0038430517233493874, 0.0, -0.01049506772173498, 0.0012021247765335976, -0.0058572988182886134, -0.005181691394834155, -0.003981727353309847, -0.003870950693135923, 0.0, 0.004910018142554792, 0.0, 0.003702013490317969, -0.0023677278878540607, -0.0025342596692143602, -0.001015566551512384, -0.0007108533007064701, -0.00989928847425218, -0.0009781174779238, 9.174353759993917e-05, -0.002886507231182803, 0.000824317017124604, 0.0, 0.0, 0.0, 0.0012611202744948885, 0.0, 0.0, -0.006855827208081544, 0.011998767503191066, -0.009600033572016664, -0.002464587882905562, 0.0, -0.004756141706596934, 0.004415619866341137, 0.0037953588582407597, 0.0093816971749557, 0.005512204807234371, 0.0, 0.004587845509148828, 0.006580556591371259, -0.004029703519009976, 0.0015668584740364327, 0.0, -0.004657005251250602, -0.006154493393618164, 0.0017990480993549222, -0.0018680947396783562, 0.00493161359907528, 0.0, -0.0017350610389349553, -0.005790091383628724, 0.00785402808340369, 0.0010841640943025882, -0.0022214691573141463, 0.0, 0.0, 0.008884867167819801, 0.011012332520529463, -0.006712140342186281, 0.007636440678960437, -0.010457724891624939, -0.004657005251250602, 0.0020415183333414716, 0.0045811820041496785, -0.00021281796419393598, -0.0001366257389731169, -0.0098092465654321, 0.011044414245877168, 0.013326592838104764, 0.0007561370850859993, -0.0006344512902226417, 0.0037658332905904646, 0.008415520701900698, -0.004160121680423758, -0.007612069937248096, 0.0, 0.006132200940141311, 0.0, 0.015907770507067705, 0.001688337368839773, 0.010331055890510902, -0.00491079473052746, 0.0009624659541363831, 0.0, -0.0012049299854924173, 0.0, -0.019776811258165355, -0.0036549214754877453, 0.0, 0.0, -0.011376399593296192, 0.0038812891451830227, 0.0, 0.0, 0.001307315766802439, -0.0025346626493809974, 0.004299913351149618, 0.0031962377096177246, -0.011867399381834566, -0.0032868928930016093, 0.0, 0.0, -5.677784781984527e-05, -0.004339353792534351, 0.0, 0.0, -0.011017691268903335, -0.006051582928003077, 0.0, -0.008134014643574827, -0.013718211572513845, 0.0, 0.0, -0.003804200548330521, -0.013152821592800706, -0.0042750052101528735, 0.003761837230600251, 0.0, 0.004756089561721226, 0.0049812706274681064, 0.0002415787090588231, 0.001175089670806853, 0.0, -0.017604951502694293, -0.0069445331329347285, 0.003467920345566125, 0.0027612819789466546, 0.0029585814346531386, 0.0, 0.0006255155234460148, 0.0, 0.004385135379281149, -0.008855730671641174, 0.003498851299026142, 0.0, -0.0058572988182886134, 0.0012273169102999261, 0.0, 0.0006841895454087672, 0.0, 0.0, -0.008795959310004233, -0.0006101481810018624, -0.010808030761327735, 0.0, 0.0, 0.0, -0.007623983639935109, -0.0015189039780245037, -0.005454335977932971, 0.0, -0.006589889510539527, 0.003741747366177657, 0.0, 0.005716365039275245, 0.0053325481646665195, 0.0176315248249986, -0.002488048810813583, 0.00941824852279612, 0.0, 0.0, -0.0007767714791362232, 0.005657489624768723, -0.0016036908879021971, -0.008786862747932745, 0.012147163210458055, 0.001585202100218637, 0.008388897521985567, 0.01355029121643271, 0.0021890849716411495, -0.004031794342995737, 0.006546954728835189, -0.0029903832634953797, -0.0014001993014191103, -0.0036000192765662372, 0.00021117183935154512, -0.001929575541388121, 0.005976928190739454, 0.004091063835799647, 0.006610884005151837, 0.011770799165072739, 0.0, 0.0012773619087371173, -0.013848413809154272, 0.0, 0.004244131344885101, 0.006688897039200848, -0.006016618294090201, -0.0014627380268293219, 0.0, 0.004431280172478161, -0.0016283926492210862, -0.00020288745164067124, -0.01066169056132344, 0.003800195701078137, -0.011332039778274709, 0.0005270168086150036, -0.00488446690807469, 0.0, 0.0020045570118070385, -0.002399133473524414, -0.00245141973590508, -0.0024779306099226932, 0.0, -0.014249838930838506, -0.005545971491245335, 0.0, 0.0010334699726990315, 0.0, 0.0, 0.012433053069157218, -0.007285825249767591, 0.0012663104691287438, 0.0, -0.005774713888925559, 0.0, -0.003685769258571346, 0.0, 0.0, 0.01101862466903094, 0.004575394784084675, -0.00813150891623151, 0.0008326821528959913, 0.00033462335847011366, -0.015435157589483809, -0.02145826298563035, 0.0, -0.010264972637144307, -0.00284725539134672, 0.0, 0.0, -0.0023681385468411033, 0.0026936620826402977, 0.011426436451804323, 0.011691055789639377, -0.015516786425218147, -0.00037107483616602096, 0.005653971379854555, 0.014225848897782225, 0.0, -0.017676428895780347, 0.006407260100664898, 0.001626020512881035, 0.0003921486919450074, 0.014240604364624938, 0.0040629576848968075, 0.002326222183957162, 0.012335209896761222, 0.0, 0.0016243996101380645, -0.005774713888925559, 0.008129870828746928, -0.0013168440291792154, 0.0031568924516880473, -0.009121115111542183, 0.001104893464186433, 0.0003840258332986356, -0.002252471572319071, 0.0, 0.00452197037567645, 0.008573135882742472, -0.002472687983638339, 0.002797856342083725, 0.0, 0.013223325061913285, 0.002376239981931098, -0.00219207056393993, -0.006445310015072127, 0.0, -0.001916506888459325, 0.0006697330760340285, -0.003934017335603912, 0.0, 0.0011883836728723007, 0.0, 0.01836928591817835, 0.0, 0.0022063655135478094, 0.0, -0.005774713888925559, -0.0021873911237634, -0.006312312254705955, -0.003989441625808557, 0.0, 0.0, 0.0, -0.007964716546653448, -0.006804119766023663, -0.0028620091650352454, -0.015897860870687855, -0.012216008609988269, 0.017091016651974426, 0.015415031847295252, -0.0019796474766884116, -0.006765184135904276, 0.005082928454288247, 0.0012773619087371173, 0.0170126975028326, 0.00696583195194028, -0.00029826378036924866, -0.005100213917668534, -0.0008887647514876042, 0.0, 0.006595752677946737, -0.005774713888925559, 0.0, -0.004968678488880294, 0.0013622692048086504, -0.005545971491245335, -0.011033571799931096, -0.0011664569357266571, -0.00975713432596928, -0.010379150585266657, -0.012035186454921961, -0.005545971491245335, 0.0017662238521819315, 0.022583021635895272, 0.003770226020580206, 0.0, -0.013152821592800706, -0.006662340742594073, 0.0074925692453025414, -0.0049661083409002545, 0.0, 0.0, 0.0, -0.002652554297153649, -0.00017204342974577882, -0.0036915779730308084, 0.0005677330970378667, 0.004739448764722845, -0.006624714358535592, -0.011797955509271697, 0.0015650228613863526, 0.004135788460712932, 0.0025172054394213966, -0.003240308513398912, -0.004172529980389842, -0.006632965047666716, -0.011904581657568624, 0.0, 0.0, 0.00010719893189985783, 0.005684024911346702, 0.0, 0.001318949384602478, 0.010113884017265375, 0.002967436320465791, 0.005391273586286891, 0.0006841895454087672, 0.0106963523881403, 0.0, 0.0, 0.0, 0.0, 0.0, 0.0, 0.005839402769034376, 0.0, 0.0, 0.0010673157277103424, 0.001288743933159991, 0.0, -0.008533305512583703, -0.007641011347677901, -0.0020087164215370165, 0.0005526880034095393, -0.005651796795131822, -0.010870828510620219, 0.0, 0.0, 0.0030521716004209705, 0.0, 0.0, -0.004346845518313152, -0.011937292429110952, 0.0, -0.003927884267489257, 0.0, 0.0028383153795818994, 0.013730524476243575, -0.004626464466774429, -0.0116759971733886, -0.0010373831987376641, 0.0044853491603340295, -0.00017204342974577882, -0.004276327426720726, -0.005496826758973288, -0.001469221679874243, -0.005802494198533006, -0.003607104999337577, 0.0, 0.0, 0.0, -0.0012773619087371173, 0.0, -0.004155446268392945, -0.0016016183102590127, -0.003655733659910809, 0.003629367352970617, -0.0038965588214214526, -0.001849520192037545, 0.007125308202043331, 0.0008326821528959913, 0.007980641303289383, 0.005688459109443645, -0.009157813166626467, -0.001295031421646688, 0.0011939107582632762, -0.00027479549347873285, -0.001919041290339711, -0.005558047364363347, 0.002038669281326602, -0.024288484673207496, -0.00017204342974577882, 0.002592941515386427, -0.004364537675082441, 0.005256533202574162, -0.005128664514225428, 0.0062127960504703445, 0.007116361472192694, 0.0, 0.0, 0.0065911558138266515, 0.0, 0.003455395440769893, -0.0019767053063721373, -0.003368943208290623, 0.0022545285637811, 0.0007449238620361988, 0.004145408376905746, -0.005160447744703872, -0.0015164611765677795, -0.004475846929382128, 0.011379276038540645, 0.0032289618790112547, -0.0007027062160794218, 0.006793692648580267, 0.005716772218438712, -0.004743425192872672, 0.009074212036012125, 0.008035652749885991, -0.006765184135904276, 0.0045757471786325565, 0.009111986061047565, 0.0, 0.0, -0.017173915583783332, 0.004131947362547474, 0.0, 0.0, 0.005030613778690722, -0.00838906535116899, 0.010155753352024913, 0.003906894429786432, 0.001994494607707644, -0.00245648952655456, 0.014959005049041909, 0.001167177989454713, 0.004575394784084675, 0.00012440160638589666, 0.011115016860521326, -0.0024860369757128986, -0.0027434375165258777, -0.0019083347287800292, 0.004611385277910381, -0.006757626627617994, 0.002179514852307056, 0.0, 2.8803594638572837e-05, -0.006601285188605761, 0.0, 0.0, 0.003179487621796951, 0.011257497132787049, 0.001965200705129747, 0.0001553477184164272, 0.0, 0.007568115185074135, 0.0009536327900388176, -0.0003436160261245456, -0.001947134608197883, 0.003906894429786432, 0.006674695027175787, 0.0006999154107387068, -0.0006010411574104862, 0.00019489503544409798, -0.006627020610124341, -0.005761748884883947, 0.005637918833730165, -0.0010116293287212269, 0.011114178881158048, 0.0061400725509789394, 0.0, -0.00021281796419393598, -0.010145523830734368, -0.007982837004958962, -0.010540069406494162, 0.0018543935182145268, -0.00420028158658446, -0.0025641617528633013, 0.0029668864006292743, 0.0, -0.003214035080627566, -0.005909038078810791, 0.0, -0.014574488376514556, 0.0011031316737269417, -0.006872941941182288, -0.002692397558029153, -0.005658422698048828, -0.00018985133486205006, 0.002114959847175602, -0.001015566551512384, -6.86262247676989e-05, 0.008599492447719249, 0.002336360502593928, 0.004396878151315536, 0.005713504595784351, 0.0, 0.0006503809887617257, 0.004202051581600673, -0.005545971491245335, 0.0031962377096177246, -0.0055677349496948475, 0.0, -0.005741099014163616, 0.0026936620826402977, -0.010379150585266657, 0.0, 0.002947402196058468, 0.0, 0.0, -0.010181209321970764, 0.002873770850598025, -0.01471670631407359, -0.0049777385424979005, -0.0071421655575279065, 0.008099460569395747, 0.012147163210458055, -0.0072581276279499235, -0.007617868606320006, -0.005802494198533006, 0.0, -0.0018696544782063006, -0.004358804184201491, 0.0, 0.0, 0.001592298264043931, 0.0020440260584604396, -0.013441239710304004, 0.0, 0.007169158843243957, 0.0, -0.0058572988182886134, 0.0024727569803063266, 0.002354740248357156, -0.006016618294090201, 0.0035983933619178885, 0.0, 0.007090170512664739, -0.006525568229784183, -0.001055185532993828, -0.002272262847268705, -0.007671433249994189, 0.0, -7.283077581612341e-05, 0.0034350436155644046, 0.002142532943036883, 0.0, 0.0, -0.011790286673201443, 0.0, -0.006445310015072127, 0.0032709899213550675, 0.00015407488187383083, -0.009288935657422859, 0.010234805344291541, -0.0013850850401390543, 0.0010841640943025882, 0.0, 0.0, 0.0, 0.015377697530247095, -0.0066849960985020844, -0.016129975515583806, 0.008035652749885991, 0.0, 0.0020415183333414716, -0.0007889108030671385, 0.0, -0.007038149677232118, 0.0006108745888324475, 0.007413871514455778, -0.004153845994241005, -0.006296774546544195, -0.003504452914465563, 0.002400333102369816, 0.011634510038758478, 0.003906894429786432, 0.0006181063405767616, 0.01336956794032817, -0.0009549496490180943, 0.00781742744261705, -0.004639236793257415, -0.0022150938342332532, 0.010138315905402366, 0.0007507394001125225, 0.003756631104813294, -0.00750541540281695, -0.003717609801049446, 0.006447906773019987, -0.005291979469925486, 0.017539977003403963, 0.004230217015161243, 0.0, 0.007139186437837688, 0.005234186766370044, -0.005158330255027171, 0.012025959909666031, 0.002078901527184665, 0.003667312492736705, 0.0006503809887617257, 0.0, 0.012586916648269471, 0.0023976339302412466, 0.0037953588582407597, 0.0013179129394552903, -0.0073120536891004674, 0.0, 0.00224986287362736, 0.0049656060527416045, -0.011698219338516875, 0.0, -0.0068078651447909784, 0.0, 0.0, 0.0032558237323994095, 0.0, 0.0009935754277088924, 0.005686377395509936, 0.0, 0.0019373999612557447, 0.011172855362751713, 0.006996021491399579, -0.002188188108801811, 0.007586300173505221, -0.007853979522119053, -0.005658422698048828, 0.001541393567793844, 0.0, -0.0073865089917669385, 0.004675071330964575, -0.00891995416847901, -0.001989582035221543, 0.001568214621484849, 0.0, -0.00942670272457763, 0.0, 0.0, 0.0, 0.009501155599902082, 0.004468854913107868, 0.0076607135864631805, -0.0038965588214214526, 0.0021084247003162015, -0.005129473696069887, -0.005291979469925486, 0.0, 0.009774872531897722, 8.153981155489813e-05, 0.0, 0.0005004115475855944, 0.002173977295434167, 0.0, 0.0020854364803211604, -0.002509912277679125, 0.0, 0.0020415183333414716, -0.002410720263084105, 0.008205072947389052, -0.003214035080627566, -0.001469221679874243, -0.004412064170572839, 0.002865217478619686, 0.0064901551957314545, 0.0, 0.002875964919974121, 0.0008752234610932564, 0.005127103929477369, -0.0010417904895298835, 0.0020995238615391853, -0.010639897498662319, 0.003139120078809602, 0.004695784906244993, 0.014190208948726747, -0.03446357880788151, -0.009121115111542183, 0.0, 0.014782973364088355, 0.0, 0.0, -0.010504317269748317, 0.004533733567247413, 0.0, -0.011784006384892543, -0.00446386021350848, 0.0, 0.0, 0.0, -0.0006612314057922985, 0.0, 0.0, 0.0001533802739494529, 0.006674695027175787, -0.002464587882905562, 0.010004954233322687, 0.000772410514223373, 0.017056967443630545, 0.0, -0.0012978911847133553, 0.0008326821528959913, -0.0057488817836152395, 0.0050611418031156945, -0.017219358999202877, 0.006241280100907319, -0.007345108932687138, 0.0, -0.0048760137694609075, 0.02005840067784462, 0.0, 0.011195192508650814, 0.00012440160638589666, -0.019244819448067725, 0.009400883805000376, -0.010916433770988712, -0.006632965047666716, -0.007111153080726736, -0.0007259862698139808, 0.00868605873019875, -0.002818041612688662, -0.007885148419737779, 0.007082815523485122, 0.00158618401059068, 0.004606116384141264, -0.01157685604193643, 0.0008549492989362789, 0.0042355263856923625, 0.004739448764722845, 0.010768937183538373, 0.0, 0.0, 0.0005023652923405236, 0.004526144919198684, 0.0, 0.008145771506690946, -0.0151364693897567, 0.0, 0.0, -0.024933999554788613, 0.0029352065415683176, 0.0006040374316335929, 9.174353759993917e-05, -0.007038149677232118, 0.010298508718362031, 0.005212390801827051, -0.0036032014326211666, -0.0030528312260927645, 0.0, 0.012541181877925934, 0.010176504752549593, 0.0, -0.004657005251250602, 0.0009624659541363831, -0.004142855659881708, -0.0019514800328203565, 0.0002316409954855046, -0.02237266387698694, 0.0, 0.004756089561721226, 0.0, 0.0008327716907111927, -0.0034650342993480664, -0.001469221679874243, 0.0, -0.0007930945179143134, 0.0, 0.009578244932532978, 0.0, -0.013880439538054047, -0.00457229229326339, 0.00016572399544480056, 0.012724221976422855, 0.003726735954712077, 0.0, -0.003670694140302495, 0.0058868217282520546, 0.0009141274583959703, 0.012386803014925165, -0.007959688520055953, -0.008525599280685319, -0.004504824580871319, 0.003646624059698435, -0.0008992469315876865, 6.155721351690231e-05, -0.006474749526648147, 0.00394575546563259, 0.002078901527184665, -0.037622712127980205, 0.0, -0.00564958782245507, 0.004367852322872669, -0.000241307986443076, -0.0032056294484455843, 0.0048369339817934285, -0.0005537254235177527, 0.001582691335878767, -0.00702844875462747, 0.0, -0.008278648084128724, 0.007367550800465639, 0.013111682030871494, -0.002529286650270041, 0.0, -0.007623983639935109, 0.003440577528805208, 0.0044131331376941856, -0.0026569174837226396, -0.0048760137694609075, 0.004279016097449848, -0.010641517939944285, 0.009644617617153321, -0.005545971491245335, 0.006516359213476574, 0.004942459637125761, 0.0, 0.000546657741199127, 0.0, -0.0014457729200323345, -0.010080463464485458, 0.002865217478619686, 0.010091355226482284, -0.0012773619087371173, 0.013271914384652793, -0.0017068723018921906, 0.0, 0.003447916362144245, 0.0027612819789466546, 0.0038251993278554048, -0.004513593614430672, -0.004626464466774429, -0.007781436707883383, 0.0035397854332411033, 0.0, -0.0007108533007064701, 0.005990373869414636, -0.031560389382003326, -0.0032317856332321326, -0.024028566263991344, 0.0011702152248359088, 0.005062378898540772, 0.0054848223507187556, -0.009491443821623802, 0.0, 0.006589553205878103, -0.0003399786609608059, -0.022798497294295533, 0.0009582766096614541, 0.0022661339825066355, 0.0, -0.0005703359568660593, -0.01302242968097654, 0.0059511334876264565, 0.005044492863901375, -0.011589274602659017, 0.0, 0.00015517328405652557, 0.0016613877420357478, 0.0, 0.0, 0.0, -0.00094903552229808, -0.003796389712132712, 0.0012773619087371173, -0.004277969265952453, -0.005649248503169369, 0.0035983933619178885, 0.00615341149037826, -0.007186921295319743, -0.0017967567273065976, 0.0010841640943025882, -0.002488048810813583, -0.008073128374393924, 0.005051037004778138, -0.001052661854891496, 0.0, 0.000922415545111478, -0.001852805134316694, 0.0030521716004209705, 0.0, 0.010860335261965432, -0.0004674861232535135, 0.0, 0.0012457130684742585, -0.003504777534380733, 0.002071608690337137, 0.006241971722782503, -0.003046371179497636, 0.006155991275762113, 0.00017204342974577814, -0.005646883365951887, 0.0010991326886162197, 0.0005032880133095437, 0.009369847659781013, 0.0014928959823559752, -0.002483757222436226, 0.0035179399375156704, 0.0, 0.0, 0.011335952951875415, -0.0021879195673821816, 0.0016734454376236831, 0.003034399283134306, -0.0073865089917669385, -0.0035458147999125494, 0.0023921694870672875, 0.0, 0.0, -0.013362896946634019, 0.0, 0.0, 0.0, 0.0, 0.0, -0.0035577831422639716, 0.004877178924199173, 0.005103080895352217, -0.00456472376992541, 0.0020415183333414716, -0.010431719140176156, 0.006682804204073457, 0.0, 0.014733019992645893, 0.01372498474122015, 0.001887657307488426, 0.005140134255653571, 0.0012457130684742585, 0.008607782272719047, 0.005493860327166761, 0.004035780427275204, -0.004758631634396287, 0.0, 0.010266554907993932, 0.0, 0.005493860327166761, 0.0032122735374728274, 0.01019740865521001, 0.00838184954285351, 0.0028552398488490755, 0.0011581794383189103, 0.0070142315735857155, 0.0, 0.0057826221326828554, 0.0, 0.00931545049815719, 0.009302689051027631, 0.006815845732836346, -0.0127977290675442, 0.0, 0.002400444940253208, 0.0030573502860140544, 0.003254576962223341, -0.009971267581287054, -0.0008422261420706442, 0.0, -0.022324102766052244, -0.002464587882905562, 0.0013124430025974693, 0.0, -0.0007687347266896444, 0.0, -0.007743907207687944, 0.0, -0.007415098617442737, -0.0022283051799248024, 0.0, 0.0019957843342325826, -0.006756159237597075, 0.002038669281326602, 0.00969295419997071, -0.009907983200772895, 0.0009200624125865656, 0.0, 0.008035652749885991, -0.008037223133434369, -0.005128664514225428, 0.0, 0.0, 0.00544439036514495, 0.009676688643297713, 0.006618691869395177, -0.0007463685516499864, 0.0043634583691380254, 0.006434533672397174, 0.0, 0.0032948116544239785, 0.0, -0.006016618294090201, 0.003906894429786432, 0.009733016368364078, 0.0027612819789466546, 0.005271463030249021, -0.006100894619528971, -0.02137918006003251, 0.0, -0.003270672947538744, 0.003386336592731992, -0.006359833132595524, 0.005783888871298001, -0.005253674320649672, 0.0014742863698709325, 0.0011883836728723007, 0.0, 0.0, 0.0, 0.008129870828746928, 0.011619781798070154, 0.007384908341516245, 0.0065260733321120135, 0.006000116162914541, 0.0034204786851114084, 0.0, 0.0, 0.004389476835245773, 0.0012773619087371173, 0.0011768040067819544, 0.002065124787329045, 0.0, 0.0035397854332411033, -0.0030050681436893587, 0.005897168163379054, 0.0065260733321120135, 0.0016984621142235121, -0.0010944834713334495, 0.011127245866343184, 0.0022879522806666234, -0.0007226189880342367, -0.0030751749957469254, -0.013310138387639243, 0.004181594978431273, 0.0, 0.003482904192291177, -0.0017735134124249297, 0.019038307863112346, 0.007900843441256921, 0.004236644957112745, -0.00556052546923535, 0.0018720439604026217, -0.011032006760719332, 0.0, -0.00042328589373772675, -0.0069681109803617115, 0.004381777224009281, -0.006474749526648147, 0.0006824695495789906, -0.0037393662963476956, -0.0009278175173639417, 0.0010082798428029441, 0.006451804282939155, 0.004305073027077444, -0.0018443114816172178, 0.004441963273594671, -0.007796872890221145, 0.0, 0.0, 0.011893274028212678, 0.004739448764722845, 0.0, 0.0, -0.0012978911847133553, 0.007202088620859472, 0.0061383634287671286, 0.004739448764722845, -0.0019181565565842334, 0.011870638098206059, 0.0034935446339534257, 0.0, -0.02004133179109728, 0.0, 0.003410489332318906, -0.009880397423438164, -0.0036322289110141417, 0.006674695027175787, 0.0, -0.0030948934984460995, -0.004743425192872672, -0.01951731249748134, 0.0030060810869444047, 0.005369074604454168, 0.010354151541972542, 0.0042306503654298555, 0.0, -0.011017691268903335, -0.0020865359307739376, 0.0, 0.013647918860969064, -0.014204741864161896, -0.007167929003106353, 0.006917558877149416, 0.0, 0.0, 0.001619267620532615, 0.014979593316521968, 0.006238035369216305, -0.0005175528337527323, -0.002496395861557652, -0.002149768730979097, 0.0, 0.0, -0.00019278427653943996, 0.00813644142640142, 0.005783888871298001, -0.012961634643339576, 0.022981724027724925, 0.00019489503544409798, -0.00023656565906858676, 0.004254636109911447, -0.006138525523341739, -0.0008050432164459602, -0.004170241406348379, -0.005049235600381747, 0.00014137639808044954, 0.016458887937899853, -0.002865380859733682, 0.011020147442681706, -0.009943603648332619, 0.0, 0.0054146264787733765, -0.007902869060823114, 0.004478293775654379, 0.0009253841101590267, -0.010260732130149964, 0.005382226343681143, 0.0, 0.004545392595142561, -0.013085174638689683, 0.0011883836728723007, -0.006154493393618164, 0.0, -0.011017691268903335, 0.010256649110948044, 0.00755756933123009, -0.0031953069716725755, -0.005516062162397549, -0.0034732595818006366, -0.0049661083409002545, 0.0, 0.0034612116130994675, -0.0008473366293841901, 0.007255042322994361, -0.0009613522798531351, 0.0, -0.001732144219454014, 0.010545714490836673, -0.02137918006003251, -0.0003333970237662218, -0.005718276126902082, 0.004424165497361796, -0.0016525950390233915, -0.006090211756427136, 0.002078901527184665, 0.007640936383486145, 0.001081498221842177, 0.0, 0.0010917211515148316, -0.003368943208290623, -0.006560713663857544, -0.003578896450147783, 0.006766438564775727, 0.009501155599902082, 0.0069257929380968876, -0.004885728026233758, 0.0001357218179808061, -4.077453444813317e-05, -0.008109355483143345, 0.0, 0.006000116162914541, 0.0020415183333414716, 0.013888297440503575, 0.002551191369939276, 0.004943750337933188, -0.000843572880631955, -0.0010791839366112192, 0.0, 0.0, -0.009316826934023926, 0.013381990812839186, 0.005512204807234371, -0.012947736820687634, 0.0, 0.004971409647869588, 0.004016091799672865, 0.0004953201702761436, 0.0042806322449753425, 0.006251871990568554, -0.00029866794317819436, 0.0056191152287964835, -0.0017716991201627275, 0.018852060034605145, 0.014463765604582362, 0.0, 0.0, 0.0022776644808991274, -0.0016560358696552928, -0.008008973825704195, 0.0, 0.0, 0.00030847068280462754, 0.008651405304144651, 2.8803594638572837e-05, -0.004942554742142242, -0.0008076922553326272, 0.005210328380627731, -0.002069030403604, -0.008183691668798253, -0.010562208451709635, 0.0016372331500249747, 0.0, -0.0024269119013661535, 0.008180336032140797, 0.0038694752186548575, -0.003368943208290623, 0.0, 0.0, -0.004879078406312929, 0.003459061390732138, 0.0022615181548001524, 0.0020045570118070385, -0.0022214691573141463, 0.0, -0.001919041290339711, 0.0, -0.012605194193823208, -0.001539342482342584, -0.0023343916148259435, 0.005019950917856494, 0.0, 0.004236644957112745, -0.00677063843270943, 0.0012382389761764207, 0.002400444940253208, 0.0, 0.00010661776294074651, 0.0020045570118070385, 0.000980033173739972, -0.0004887418143221029, -0.0031508003929358987, -0.0034751916727162675, -0.004571667049305299, 0.005493860327166761, 0.002003079621041301, -0.0007259862698139808, 0.0037658332905904646, 0.0, -0.012572374298809114, 0.0009633976250645906, -0.014044801829365088, -0.007100385383246361, 0.0023893136308464733, -0.005658422698048828, -0.0016525950390233915, 0.0024703582289812374, -0.003870950693135923, 0.004306539344383013, 0.002374139711691328, -0.0012683521802522545, 0.0048336652814744445, 0.0018215323881868362, -0.005131677569824504, 0.0045811820041496785, 0.0, -0.0025375392523993476, 0.0, 0.0029352065415683176, 0.0006841895454087672, -0.005774713888925559, 0.009676688643297713, -0.023781293624925186, -0.0038369337201278075, 0.002443859018598937, -0.002976488355582799, 0.0020656431686991647, 0.00628308176151655, -0.011815865544047306, 0.01272748650856835, 0.0, 0.01922725943833258, 0.007413871514455778, 0.0, 0.0, 0.0020415183333414716, -3.8970569658156294e-05, 0.008727564514102077, -0.012059989854218831, 0.00158618401059068, 0.004269941915837958, 0.0, 0.0215710666537391, 8.153981155489813e-05, 0.004078376286571669, 0.0, -0.00784336920073228, -0.0054399473414742374, 0.00710988809155123, -0.007276803629924962, 0.0, 0.0, -0.003424766349742082, 0.0038812891451830227, 0.0038287216121452292, -0.003795252481312124, 0.0, 0.004670388033965125, 0.003906332856825862, -0.004378791552467606, -0.005096495134005693, 0.008117558998990656, -0.007151984211712376, 0.0011326814491888417, 0.004936917750548885, 0.0006476437640608382, 0.0, 0.002556472598219831, 0.00744809037798553, 0.0003510328723620147, 0.0023976339302412466, 0.0031568924516880473, -0.002239807869504518, 0.009152134843455461, 0.0029352065415683176, -0.00819920927948148, 0.008836060471718973, -0.0093706160865738, 0.0, 0.013175742465640718, 0.009394064432085987, 0.0193317666691132, -0.006114946277582403, -0.0005643855082978302, 0.0, 0.004806690870874732, 0.004570344012193393, 0.0, 0.0068866874035222, -0.0014635879912298102, 0.004078376286571669, 0.0, -0.006154493393618164, 0.0209003999256063, 0.0, 0.0012920492809594885, -0.00032784160733433256, 0.003991778497734485, 0.0014992887300843223, 0.007737916193364987, 0.0004953201702761436, 0.0, 0.004889652848391595, -0.009696681035687672, 0.007229553438789747, -0.011084086538870495, 0.0, -0.00035372025301878384, -0.003943747767258925, -0.005071615948880144, 0.000604205043525313, 0.00406427446314919, 0.002801014377834559, 0.005382226343681143, -0.00011473645254112406, 0.0, -0.004031794342995737, 0.002875964919974121, 0.018363881728111722, -0.005658422698048828, 0.003252522976641118, -0.006198232108807236, -0.0015950943368632094, 0.0, -0.0055737847358611784, 0.004489059836300637, 0.003139120078809602, -0.001469221679874243, 0.0, 0.0, 0.0, 0.00838184954285351, 0.0, -0.003870950693135923, -0.0022853464257230624, 0.006113693459640544, 0.0061383634287671286, -0.001721492580015389, -0.0012809049978779804, 0.0003076508959416839, -0.015228295599426091, -0.00011473645254112406, 0.0004304572374934199, 0.008880430204540725, 0.0006503809887617257, 0.005631597424274557, 0.0, -0.00407090003857234, -0.0014103988930896335, -0.013256730034669078, 0.0, 0.0, -0.0016560358696552928, -0.007571827690409681, 0.0045811820041496785, 0.0028114497992112538, 0.0026641668551122444, 0.0, 0.00940054904614799, -0.016762506387965084, 0.005317024833499236, -0.0015595148379145103, -0.006765184135904276, -0.0008422261420706442, 0.0, 0.004428988510003492, 0.0038445918795124577, 0.002996181313429842, 0.005161506888808779, -0.004735017229783934, -0.003121192716657988, 0.0, -0.004213799565340903, 0.0, 0.008972602676562635, 0.0, 9.219313796552029e-05, 0.0, 0.0, 0.0, 0.0021772540483014574, -0.0027397801033983552, 0.0, 0.0, 0.009515414093541704, 0.0054848223507187556, 0.0, 0.0, -0.0005558464682415196, -0.006114946277582403, 0.0020415183333414716, -0.0027184443095113722, -0.002472687983638339, 0.0, 0.00045399249697693607, -0.0039848350658464576, 0.00019533854779073801, 0.0029261623568379307, 0.0, 8.570249720782641e-05, 0.001691150271801121, 0.0028897877167231995, 0.00416310903819952, -0.0036739082106129264, -0.0034475649614327517, 0.0028531410903527097, 0.0029431389998639938, 0.0, 0.0016598932820342212, 0.009501155599902082, -0.004137094312486414, 0.0022476640313888845, 0.0, 0.006784944320845778, -0.009600033572016664, -0.009121115111542183, -0.0016565157348911042, -0.003717609801049446, 0.0, -0.006359833132595524, -0.008898843688834496, 0.0032709899213550675, -0.01627090643317354, -0.003368943208290623, 0.0, -0.0016036908879021971, 0.0009755262328308815, 0.0, 0.01125005049892877, 0.0, 0.019220797250802276, 0.0, -0.0029982772626749093, 0.008195115964381645, -0.006632965047666716, 0.003359825439530033, 0.00520370227710474, -0.0042622462011602975, -0.0012773619087371173, 0.0, 0.0, -0.012844300520568279, 0.000815210382417712, -0.010181209321970764, -0.00010155274295501769, 0.0022476640313888845, 0.0009171007204815761, 0.0037667226674519944, -0.005664758457768442, -0.005769896422462194, 0.0019021257130598347, 0.01405211373271027, 0.006000116162914541, 0.0021268257669054525, 0.0, 0.001619267620532615, 0.0, 0.0015668584740364327, 0.0016778787791286746, 0.0, -0.019088081842080905, 0.0, -0.002483771364408728, 0.0017209333559102687, -0.008654958347051009, 0.012696370263695701, 0.0028018637804930885, -0.013930673095857386, 0.003897386041480699, 0.003862675570194019, 0.01342552026148611, -0.014999323473761874, 0.006096675434917058, -0.003368943208290623, 0.0010265796890421093, -0.019310957024175963, -0.0037160494894942406, 0.0, 0.0, 0.0002231902776944131, 0.0011053184789912946, 0.0, -0.0038772013936915588, 0.0, 0.0043557551040220984, 0.00022942631408848934, 0.0005106481972257355, 0.00983806073307717, 0.003022371691189554, 0.008573135882742472, 0.0011883836728723007, 0.0026641668551122444, 0.002835917837987957, -0.010882058771051601, 0.002829221412297711, 0.0, -0.006987058222273438, 0.0, -0.0006230150235771191, 0.008195115964381645, 0.0, -0.002983602447292076, 0.0, 0.012424661720359815, 0.0, -0.007957485320647724, 0.008594028162819784, 0.0018113400906009823, -0.005984450641467907, 0.0006381863752752913, -0.006831458524248229, 0.002660988816531423, -0.00409973559638209, -0.00012988952603462504, 0.0, 0.006606422164391486, -0.005636878640667141, 0.002925603204372018, 0.0, 0.0, 0.0, 0.004452225684217097, 0.0015059196053455522, 0.0, 0.0009935754277088924, 0.022249803227408303, -0.0012809049978779804, 0.0, 0.00033462335847011366, 0.004236644957112745, -0.00605525980628381, -0.00302955411371893, 0.011029332166472108, -0.008317314162968858, -0.0007227668395429616, -0.010203466864816688, 0.0, -0.010457724891624939, 0.00018685634683553005, -0.0058125337684697955, 0.0, 0.004661237183091117, 0.0009536327900388176, -5.525627362549142e-05, 0.0, -0.007515717920827741, 0.0054349459346126824, -0.002472687983638339, -0.005409364024007117, -0.0011346622546471224, 0.0022604633351197825, 0.0, 0.0, -0.0009715902647913419, 0.0, 0.0032948116544239785, 0.004922954578849608, 0.008195115964381645, 0.0, 0.0, 0.002190196088842344, -0.00017204342974577882, 0.0, 0.00033462335847011366, 0.0, 0.01886481386464539, 0.0018543935182145268, 0.002201687754275033, 0.00158618401059068, 0.002828099829073825, 0.003852864282244317, 0.0, -0.012293997868584016, 0.00028755458590644216, 0.0016149245235666982, -0.011146830558401254, -0.005291979469925486, 0.005342533110291219, 0.0003160505832427594, 0.0, 0.011162362862872708, 0.004543681326212178, 0.008386503673558443, 0.00697691640365387, -0.00760844221773353, -0.005658422698048828, -0.007872460307347211, 0.0006977781169004477, -0.0011232301921138084, -0.01698983251166773, 0.0, 0.0, 0.005270301244460089, 0.0008798285388894634, -0.003245594323043886, 0.0, -0.008282948585021621, -0.0003399786609608059, -0.006359833132595524, 0.002124466745986015, 0.0, 0.00934764026720223, -0.00548307493905907, -0.012861442244556378, 0.0, 0.0, -0.018981995803266326, 0.0, -0.009121115111542183, -0.01167614695882666, 0.0018941325415616857, 0.0, 0.0, 0.0013179129394552903, 0.0020415183333414716, -0.0012773619087371173, -0.003665237753743546, 0.009061194730589455, -0.005802494198533006, 0.006270095662011128, 0.0, 0.0, 0.009400883805000376, 0.001993043538431909, 0.0, 0.0010841640943025882, 0.008944864440059786, 0.0026936620826402977, 0.005977130492694562, 0.0014992887300843223, 0.0019403446743265342, 0.0, 0.0, -0.011499397229004648, -0.001557015535371639, 0.00028755458590644216, 0.0, -0.003697910080972844, -0.004566845157533164, 0.0, 0.008086088272354313, 0.005176699519700043, 0.007237488214487107, 0.0018198199862708788, 0.007873365788122512, 0.0, 0.002433087999394054, 0.005028209097531634, 0.007082815523485122, 0.010234209113828985, 0.003884244762777064, 0.0, -0.009171818232714705, 0.0, 0.004499739809617906, -0.001089969487610245, -0.0006010411574104862, 0.011083811823334197, 0.0016142930244821515, -0.005802494198533006, 0.006390423012418905, 0.004513797210908837, 0.000862712851899211, -0.01698983251166773, -0.004277969265952453, -0.006280152465300056, 0.010354151541972542, -0.002679402198577708, -0.0004356377247562505, -0.001052661854891496, -0.0007259862698139808, 0.00732144256937972, -0.004623209884345336, 0.0, 0.0010632183738131641, -0.003070104347137275, 0.004981372698942929, 0.0034257760054927644, 0.0, 0.0, 0.003912005705365517, 0.0, 0.004479338781608886, -0.00017204342974577882, -0.005802494198533006, -0.0007494292096857956, 0.0, -0.002529286650270041, -0.0067008985114364785, 0.009759611654775279, -0.005373928061499532, 0.005161506888808779, 0.0, -0.0059590550431567225, 0.0, 0.0, -0.011566063804130841, -0.0006276923862104752, 0.00025552138101161054, 0.0, 0.010921979525890444, 0.0, -0.0022539009887739933, 0.001887657307488426, 0.0021271335503859775, 0.008990872151836813, 0.0012727780102452248, -0.00021692385151667897, -0.005483626721835638, -0.005393527981277923, 0.0012586301718218859, -0.015090120531727655, -0.005158330255027171, 8.21926339400905e-05, -0.013473791879689232, 0.00012440160638589666, 0.0012660722079707173, 0.0023617163107614264, 0.011335952951875415, 0.0, 0.015971139343135876, 0.0023663854181450953, -0.00750541540281695, 0.0, 0.006581737608237641, -0.003273726542934199, 0.0, -0.002488048810813583, -0.004218065905663853, 0.004971409647869588, 0.00017155539597938892, 0.0019541857497644873, -0.0006010411574104862, 0.006952983553080075, 0.002636942761199063, -0.004962832303235351, -0.004094929478104604, 0.0, -0.004839282430968367, 0.0, -0.007796872890221145, -0.012333137745755441, 0.0, 0.004739448764722845, 0.0035483392603587747, -0.0029436166019320515, 0.01184811896629556, 0.008381156504123416, 0.0, 0.008681124243984656, -0.0035169625692844145, -0.002810982868791396, 0.004236644957112745, 0.0, -0.0010031066344494827, 0.0, 0.006996519368163293, 0.011315009315810566, -0.00491079473052746, -0.003979984378137457, 0.005028209097531634, 0.0, -0.005115248801250187, 0.0, 0.007339171591298771, -0.002472687983638339, 0.0033554865946060996, -0.0022150938342332532, 0.003824031768641627, 0.002500716956105363, -0.0008160391434651497, 0.002801014377834559, 0.0, 0.0, 0.001548184931523455, -0.0048760137694609075, 0.0, -0.01090743467830367, -0.00589415178081195, -0.003274315364414126, 0.0006841895454087672, -0.0027259052747994617, -0.004962832303235351, 0.005504653009702007, 0.007500730743669496, -0.009121115111542183, 0.0, 0.0, 0.008195115964381645, 0.0, -0.005513442034686018, -0.00795981321128764, 0.0, -0.0029969687693474473, -0.0019252031353319094, -0.006105596529955017, 0.0, 0.0023832776828685474, 0.0, -0.0031114976945790184, -0.02301452427512454, -0.008934337406485166, 0.0017325027945979665, 0.004099118627204144, -0.0026254301996201995, 0.0, -0.017804693898116834, 0.0016068633287794824, -0.005919250089427812, 0.004269941915837958, 0.0, 0.008129870828746928, -0.0022104792983538425, -0.0012739853695496865, -0.0003819141560600045, -0.000973696468498192, -0.01567563560375586, 0.0012617778749685368, 0.0040956559441532, 0.0010536756731063309, 0.005549728084563172, 0.0, 0.001865465904849202, 0.0, -0.008926220076098073, -0.007038149677232118, 0.013375413729093562, 0.003410489332318906, 0.000862712851899211, -0.003870950693135923, 0.016583292130283846, 0.0014163001739031836, 0.0, 0.0087378266228633, -0.004657005251250602, 0.0, 0.0030521716004209705, 0.002277269893327964, 0.0006195846176457825, -0.00311586136587963, 0.0017416130839373247, -0.002843713868917761, 0.0, -0.016743846223115987, 0.0, 0.0, 0.0, 3.320263271172888e-05, 0.0, -0.001985988611877423, 0.0, 0.0, 0.0, 0.001203618390593683, -0.004879078406312929, -0.002325022785440856, 0.0017810790460347796, 0.0015470731768840616, 0.009875682263906888, -0.0073865089917669385, 0.004838777240240142, -0.0071158520702411035, 0.0018251232231496295, 0.006961100542069811, 0.0006999154107387068, 0.00510836418391115, 0.009763215409112793, 0.008195115964381645, 0.0015161165588697871, -0.01370591096903193, -9.165758227893386e-05, -0.004180875927112883, 0.0, 0.002065124787329045, -0.0004097622008568915, -0.007645073066064125, -0.00491079473052746, -0.006471115386292468, 0.0, 0.012805720134625397, 0.004107736023421223, 0.0, -0.010100649992379742, 0.0, -0.007515717920827741, -0.004853897052591009, 0.0, -0.0040240935626128255, 0.0, 0.0045811820041496785, 0.0, 0.0, -0.0029835182653871043, 0.004659443200622384, 0.0038880757388012705, 8.570249720782641e-05, 0.0, -0.0006230150235771191, 0.003912005705365517, 0.013759184348757222, 0.0043557551040220984, -0.002488048810813583, 0.005906207075452219, 0.0, 2.8803594638572837e-05, -0.004506520604116582, 0.007571580058513976, 0.0029319277053702765, -0.0020558079839757704, -0.008954392184259771, 0.00015551308803441103, 0.00792240121368342, -0.00016861809376447334, -0.0035169625692844145, 0.014435817405480257, 0.0, -0.0037429673526792164, 0.0, 0.006262271768822943, 0.0013179129394552903, -0.0012773619087371173, 0.0010917211515148316, 0.000705831398516235, 0.0, -0.0015782985573453913, 0.0023976339302412466, -0.012476151391408813, -0.007253782074568036, 0.0, 0.0, 0.0020676312957923866, -0.005529090513031044, 0.02029234745849404, -0.009889829315626918, 0.00416310903819952, 0.0, 0.0, 0.0, 0.0, -0.009600033572016664, -0.00017204342974577882, 0.0017250485697957727, 0.0010101871230460341, -0.007381013796431052, 0.00591589306057479, -0.012913807398869138, -0.001852805134316694, 0.0, 0.007169158843243957, 0.0, -0.0027486821790202896, 0.00010228483455702997, 0.0, 0.0035572128910271762, -0.0010994387807046974, 0.0019574034206892355, -0.0015189039780245037, 0.0, 0.0004968600307349561, 0.0006195846176457825, 0.005839402769034376, -0.0048760137694609075, -0.005841005753839918, 0.005382226343681143, 0.0, 0.0, -0.016077644707074477, -0.00021281796419393598, 0.0007961099778881692, -0.004972593907924202, -0.0012257051136670583, -0.006051582928003077, 0.011984444661450645, -0.01337938328352307, 0.005839402769034376, -0.01085088542433512, 0.008424979308301024, -0.0020558079839757704, -0.00037857393252673367, -0.0022150938342332532, -0.010779034278028269, -0.03285557174327896, 0.005180162170606778, 0.0, 0.00416310903819952, 0.006342732255270564, 0.0017416130839373247, -0.0015189039780245037, -0.00021073126911451932, 0.0, 0.0189018649355674, -0.016448317811569284, -0.0038047008759806117, 0.006059469418007174, 0.00760305990336194, 0.01493138054161192, -0.0005955672027763469, 0.01092233122332262, -0.003044687791492722, 0.0, -0.00035739821592100626, -0.003638140386399766, 0.0010841640943025882, 0.0, 0.0, 0.0, -0.013136175523710507, 0.02263158051452379, -0.010652695426908162, 0.0, -0.004626464466774429, 0.0022476640313888845, -0.0007788222425970292, -0.005802494198533006, 0.0, 0.0033013747575523374, -0.004233311596832197, 0.0, 0.005019950917856494, 0.0038044800000953134, -0.0013975208609839002, -0.0007889108030671385, 0.0038694752186548575, -0.009338609141773854, 0.0011515740165876198, 0.005056728612228013, 0.003313161439240968, 0.0026773175290722992, -0.01668425775050443, 0.005897168163379054, 0.003928843111003583, 0.0, 0.001761382550627519, -0.015814366123301404, -0.005720336770482286, -0.00032784160733433256, 0.024490803450900964, -0.001991970349714046, -0.0009713092780493772, 0.0009536327900388176, 0.01621612681851244, -0.00418173105339493, 0.0, 0.00483077208712507, 0.006365681707293213, 0.0, 0.0, -0.008007968959736921, -0.004415307402316704, 0.008633322771113875, 0.0, 0.0, -0.006477923505618653, 0.0, 0.0, 0.0, 0.00020887352273905163, 0.0, 0.0, -0.0014065258688227094, 0.008099460569395747, 0.0020415183333414716, -0.005118083990586493, 0.0, 0.005578975871775345, 0.0, 0.00695626005583643, 0.0, 0.0012039248150950885, 0.0056150203456391875, 0.0, 0.0015161165588697871, -0.005774713888925559, 0.0, -0.009403397415421788, -0.0073949019832714544, 0.0, 0.0, 0.001619267620532615, 0.0022476640313888845, 0.0, 0.0048955295204967594, 0.007816290822389159, -0.0019363930188807357, 0.0025347931081428493, 0.0, 0.0, -0.0007856073175226521, 0.0, -0.0016571999680946754, -0.0049661083409002545, 0.0034350436155644046, 0.0, -0.002529286650270041, 0.016971483721096952, -0.018842453425829093, 0.007048660411846634, 0.0, 0.00732144256937972, -0.0007889108030671385, -0.0014388858374528202, 0.0, 0.0045811820041496785, -0.0054912393786295255, -0.002196636962915788, -0.0038686051637088032, -0.010326159540491178, 0.0, -0.0024343718763464406, -0.0014627380268293219, 0.0, -0.008083045163514246, 0.002462575361722437, -0.0012773619087371173, 0.0, 0.0018941325415616857, 0.0, 0.004424165497361796, -0.00030733991886654346, -0.007529064888714381, -0.0011184294898796596, -0.011937292429110952, 0.005123789857862895, -0.003851086333472119, 0.004280509146680766, -0.008666542326453206, 0.009879562072839305, 0.0012663104691287438, 0.003726735954712077, -0.005160650338511581, 0.0, -0.010379150585266657, 0.0, 0.0010555792000142253, -0.004987352979708282, 0.0003606188610971521, 0.0, 0.004817292639582037, 0.005918267496697292, 0.0032908775736053253, -0.008173923412436213, 0.0021535182655855853, -0.0003129589869613803, 0.003255129475210205, 0.0, 0.0, -0.00020716835924272225, -0.0058572988182886134, 0.0, -0.0053296855277090915, -0.009498876055064017, 0.0019062222474121183, 0.0, 0.0, -0.008008259617546129, -0.017406531324522082, 0.004804610002008389, 0.012855116935841036, -0.002344586354481041, 0.003095064954603598, 0.0, -0.0038800584757119247, 0.0, -0.017129533537018325, 0.004218452257980865, 0.0, 0.007752347397283766, -0.005960480207226815, 0.0, 0.0, -0.006813099237532564, 0.0, -0.0068050847392990875, -0.0038965588214214526, -0.010784182667156065, 0.0012773619087371173, 0.008961228466155467, -0.007365678268702218, -0.007005747617703398, 0.003671986262442888, 0.003726735954712077, 0.0, -0.010181209321970764, -0.007548924416431372, 0.0, 0.012742510488003844, -0.010379150585266657, -0.0011194463679057702, 0.010478350167528731, 0.009507572694001239, -0.026046756845941637, -0.010169324951764591, 0.0014256863827448295, -0.012014092214214107, -0.011018057653103258, -0.005686414086099878, -0.003442011071049409, 0.020218313323630662, 0.0, -0.004423226414723631, -0.01204825617155644, -0.007950125171891913, -0.004981428272800225, 0.00099944054538973, 0.010434019539370462, -0.004089969222567043, -0.004363379988707771, -0.008127067712568678, -0.002023826278978205, -0.007699469866164962, 0.009256126443825358, 0.004455676591018381, -0.001219966996168369, -0.017383194156394027, -0.0064795028699965625, -0.0064795028699965625]}
