{"intercept_": 7.369728427922002, "coef_": [0.0, -0.019595245793922175, -0.037630529961834074, 0.0, 0.0, 0.0038502266379542567, 0.0, 0.007534826822505009, 0.01302114093639671, -0.017612931954322654, 0.007800148750156911, -0.05635587689142428, 0.0, 0.011926071812758583, 0.009979302761150121, -0.006024511951579393, 0.0, 0.0, 0.0, 0.0, 0.0, 0.0, -0.0021150701353879124, 0.0, -0.0006995497006252288, 0.0, 0.0, -0.01632989231603888, 0.0168718525267467, -0.05741234905017744, -0.0024792804930993083, 0.012866279946779451, 0.00040370003597104987, 0.0, -0.020459396771494186, 0.007318342684747179, 0.0, -0.0013880729845400458, 0.0014004424009903562, -0.01069885205034903, -0.005816244082712183, 0.0, 0.009337705633918449, -0.01867735153406473, -0.013085479666018562, -0.006336727056731059, 0.0, 0.0, 0.0, -0.029602603813550104, -0.014811680061515979, 0.0, 0.0, 0.0, 0.0, 0.0, 0.0, -0.04154721110068686, -0.008079644798376959, 0.0, 0.0, 0.0, 0.0, 0.0, -0.00783221481596178, 0.0, 0.011215925770058009, 0.0, 0.017131747734485166, 0.0, -0.01240322590649544, 0.002214800384280092, 0.017131747734485166, -0.014798592433270452, 0.011197922218937508, 0.0, -0.030639919138648223, -0.016978702116836754, -0.02029564693789058, 0.0, 0.0, 0.0, 0.0, 0.0, -0.06130272986350744, -0.03621479088517115, -0.006995459211495065, -0.019760662298176582, 0.010505074567124531, 0.0, 0.003549929400659892, 0.0, 0.008515468191748332, -0.00024054165796218174, -0.011878641383701191, 0.019528484396008863, 0.02013852718649381, -0.02777941501413555, -0.02422176986396696, -0.004892210501721419, 0.013236673952543257, 0.0, 0.0, 0.0, 0.0, -0.017008834316511793, 0.0, 0.0, -0.007698573428199565, 0.0, -0.005454290095674727, 0.005495603593393974, 0.0, -0.017410570367287447, 0.0005309412401096171, 0.0, 0.0, 0.0, 0.03201317451199582, -0.0014915891061794827, 0.0, 0.0, 0.0, 0.017131747734485166, 0.0, 0.0, 0.0, 0.006851089659139707, -0.005454290095674727, 0.022346063223316684, 0.0, 0.0, 0.006454031935885732, -0.01442163493935252, 0.0, 0.016593351809349025, 0.0, -0.020226001762298003, 0.0, 0.0016025949352368573, 0.00030396330441501027, -0.010115119573138627, 0.02740421450739682, 0.003224888090610666, 0.0166396858202949, 0.002717746414539433, 0.0, -0.07517297084670363, 0.0, 0.0, -0.006024511951579393, 0.0, 0.0, 0.0, 0.0, -0.003682896650209034, 0.04391377685720231, 0.0, 0.0, -0.007716604410221013, 0.0, -0.0196908029349919, -0.028181163329489726, -0.02239472551367986, 0.029799293196701132, -0.002943787994457289, 0.0, 0.0, 0.0, 0.0045758846639728035, -0.01867735153406473, 0.0, 0.0, -0.011286438926456841, -0.009915804985336476, 0.0, 0.0, 0.0, 0.0, 0.005275313508884289, 0.0, -0.023663237044393944, 0.0, 0.071944819188601, 0.0, -0.024094308393460023, -0.024234377799643627, 0.0, 0.014231378364268908, 0.0, 0.0, 0.0, 0.0, 0.0, 0.0, -0.02897101656989941, 0.0, -0.04499892115230242, 0.0, -0.04959654414153226, 0.031302581599352494, 0.0, 0.0, -0.00892865330653673, 0.0, 0.0022843013925339306, 0.027242235823569903, 0.0, 0.00722263549853054, 0.0, -0.0387526558620307, 0.0, 0.0, 0.0, -0.01679005396463678, 0.0, 0.0, -0.005268593237081179, 0.0, 0.03615326165876594, -0.01392283720156012, -0.007293034770238702, 0.0014171901173416746, 0.01981884874982834, 0.0, 0.0, 0.0, -0.003967052670598695, 0.0, 0.0, 0.0, 0.0023663850578818286, 0.0, 0.017131747734485166, 0.0, 0.0, 0.0, 0.039197699479549694, 0.018871911812351372, -0.03263238176311253, 0.0, 0.021883158331347692, 0.013482489497792112, -0.008746177720985626, -0.004559527404975991, 0.0, 0.0, 0.0, 0.0, 0.0, 0.01842591577163522, -0.004229427053249048, 0.0, 0.0, 0.0, -0.0046115940483013014, 0.0, 0.0, 0.0, 0.0, -0.004190582698045085, 0.0, -0.014825334975323585, 0.021810306347435044, 0.0, 0.02189717996360164, -0.011540899381852491, 0.0, 0.0, 0.0, 0.0, -0.004486314569561797, 0.003224888090610666, -0.0040041032029596085, 0.0, -0.003210826616223946, -0.01831141814207961, 0.0033868566730506752, -0.007716604410221013, 0.01795278050511825, -0.02189144510818199, 0.009750572458596764, 0.0, 0.01168785800034819, -0.00734688918507027, 0.0, 0.0, 0.0020597870801524463, 0.025758338543683847, 0.006951467372066654, -0.005932768106267506, -0.005370182438167166, -0.027540013052135135, -0.005098151867961394, 0.009338442820015202, 0.008825954491096043, -0.013720727246163078, -0.013967743926066055, 0.0, 0.0023752989351251844, 0.0, -0.0007655258227804071, 0.0, -0.03892672843415187, 0.0, -0.01738393735017247, 0.0, 0.0, -0.017487813432639172, 0.0, 0.0, -0.014044806148522928, -0.003247121745144568, -0.00912375497097374, 0.002216913289262113, -0.018761726124433345, -0.0026334776669351494, -0.01910876117015199, -0.03504413034726891, -0.004332687346069472, 0.005301479186735561, -0.0018893972815337047, 0.0, -0.005932768106267506, 0.020511120491041326, 0.0, 0.01338519466001738, 0.017131747734485166, 0.0, -0.03535684005266505, 0.012251592416429443, 0.0, 0.0, -0.013085479666018562, 0.008153619619710487, -0.007110605873314681, 0.0, 0.01302114093639671, -0.004724620070002913, 0.0, 0.0, 0.010291946682579165, 0.04486550537513235, 0.009974133327014903, -0.02422176986396696, -0.019577823839573506, 0.0, 0.0022843013925339306, 0.0, 0.0, 0.01707814701297827, -0.05353821343249942, 0.0, 0.0, 0.0, 0.0, 0.017914984186558038, 0.010031389955886948, 0.0, 0.0, 0.0, 0.0, 0.0, 0.0, -0.005614996511916209, 0.01967480389617973, 0.0, -0.022223096664728575, 0.010584498013870527, -0.00196572982906389, -0.03772276225799199, 0.019689397117257777, -0.004486314569561797, -0.010168732403843873, -0.02189144510818199, -0.018825494248501995, -0.00915540138253232, 0.0, 0.0, 0.0, -0.016825713932321303, -0.020226001762298003, 0.0, 0.0, 0.0, 0.007944600170361882, 0.0, -0.017633404609306163, 0.0, 0.00030396330441501027, 0.0, 0.01094186944658366, 0.0, 0.0002085797466953154, -0.0053749826305134, 0.0, 0.0, 0.0, 0.010186706386194623, 0.0019848936683268237, 0.0, 0.0, 0.00040370003597104987, 0.0, 0.0, 0.00396277662464828, 0.0, 0.0, 0.008515468191748332, 0.0, 0.0, 0.0, 0.0, -0.0013565579471823028, 0.0, 0.0, -0.03942227298058431, 0.006951467372066654, 0.0, 0.0, 0.0, 0.0, 0.0, 0.021810306347435044, 0.01826514329371181, 0.0337325006330698, 0.0, 0.007964611999219566, -0.001928728698161593, 0.01457348350668723, -0.04330171552426869, -0.005456697983676047, -0.019369371639024715, -0.009386342233185664, -0.003313896731405413, 0.0, 0.013784627145808817, 0.011495063155685792, 0.0, -0.005813122446301193, 0.055224163143187684, -0.03337041683180465, 0.0, 0.0, 0.0, 0.0, -0.001928728698161593, 0.0002085797466953154, 0.03703786680293863, 0.0, 0.0, 0.0, 0.0, 0.004886360014691156, 0.0, 0.0037894468205862124, -0.016057252359409076, 0.0, 0.0, -0.011878641383701191, 0.0, 0.007102154789749493, -0.01745733390233683, 0.012251592416429443, 0.004886360014691156, 0.024214313074570268, -0.02039827217625389, 0.0, 0.0008346162383061086, -0.028358937968225566, 0.0, 0.0, -0.00031259432562442626, 0.0, 0.0, 0.03045107207598991, 0.01338519466001738, 0.0, 0.0, 0.0, 0.008908760388549675, 0.0, 0.0, 0.00040131723161522607, -0.043237182743325005, 0.0, 0.0888520289262455, 0.03253883205856762, 0.0, 0.0, 0.0, 0.0, 0.0, 0.014200937121609428, 0.007207144564001528, -0.014972916341138762, 0.0, 0.019047929065614002, 0.0, 0.003224888090610666, 0.0, 0.0, -0.013720727246163078, 0.006387161492953039, -0.013085479666018562, 0.0, 0.0, 0.009718112303895438, 0.04060782984554865, 0.007533010473093914, 0.013649906275622702, 0.0, -0.021389154654642407, 0.0, -0.004308693417312294, 0.0, 0.014231378364268908, 0.0, -0.012757980307101076, 0.0, 0.02056102115751791, -0.011513717778694256, 0.0, 0.0, 0.0, 0.0, 0.0, 0.0, -0.005204002461539311, 0.0, 0.0, -0.00581690854445315, 0.001906210585865992, 0.0, -0.005268593237081179, 0.0, 0.0, 0.0, 0.0, 0.003908089589162562, 0.0, -0.031105560493066644, -0.042385202305495556, 0.0, 0.0022843013925339306, -0.006611529320095185, 0.0, 0.0, -0.021600056689215916, 0.017131747734485166, -0.010057130240516961, 0.0, -0.016713924404286516, 0.0, -0.005932768106267506, 0.0, 0.0, 0.0, 0.018483532015929467, -0.019760662298176582, 0.0, 0.03048174939751558, -0.015226007778343776, -0.011993820739404262, 0.009104339095234216, -0.042385202305495556, 0.0043499820608916325, 0.0, 0.0, 0.00836808579681287, -0.015380726350977808, 0.0, 0.014607242007673193, 0.0, 0.0, 0.0, -0.009343252118238216, 0.0049851685388482446, 0.0, 0.0, 0.0, -0.00598044216359066, 0.0, 0.0, 0.0, 0.0, 0.0, -0.01964589261217001, 0.0, 0.0010636254225732248, 0.0, 0.0, 0.0, 0.044468647861524935, 0.0, 0.0, 0.0, 0.01268518562824838, 0.0, -0.008100948672088491, 0.004815794915997453, -0.04204297742491811, -0.016584505032408, 0.0, 0.0, -0.003920655083438218, -0.003975548206067832, -0.026471850996723025, 0.0, 0.00863990488032826, 0.0, -0.018108168302443144, 0.0, 0.0, 0.003224888090610666, -0.012575463317856354, 0.012052805521422594, 0.0, -0.011915998298439109, 0.0008346162383061086, -0.010141660648871852, -0.021389154654642407, 0.0, 0.015559631341152659, 0.0, -0.019973563463647533, -0.013732715881695669, 0.0, 0.0, 0.0, 0.0, -0.0023141641859151635, -0.0019048079940962805, 0.0, -0.013720727246163078, 0.0, 0.0, 0.0, 0.0, -0.004892210501721419, -0.012382658931906968, -0.036915000910618716, 0.0, 0.0, 0.01774473219746985, 0.0, 0.007800148750156911, 0.0, 0.01824695391639411, 0.002425166119643532, 0.0, -0.0021335780926286163, -0.028438147174411503, -0.03691561674026129, -0.012806339002569004, 0.014728696412281445, 0.1077098406218353, -0.019973563463647533, -0.0024984792420537525, 0.0, 0.0, 0.0034729316779281583, 0.0, 0.0, 0.0, -0.006024511951579393, 0.0, 0.023885671433735805, 0.0, 0.0, 0.0, 0.0, 0.0, 0.0, -0.004348880415783848, 0.0, 0.0037623676018961752, 0.0, 0.0, 0.0, 0.0, 0.019468599792200943, 0.0249708133337898, 0.005669933592791241, 0.0, 0.0, 0.003528013712947495, 0.003565810601748405, 0.0, -0.005382239030226064, 0.0, 0.000760241329971703, 0.018973663707556616, -0.026900832699051823, 0.0, -0.017651792304103266, 0.02069214131415893, 0.0, -0.02589326508218288, 0.038662893652753556, 0.0, -0.0020723878318196203, -0.023577014126592875, -0.019451820188000516, 0.012543461950710029, 0.0, 0.0, 0.0, 0.0, -0.004576168436941464, 0.0, 0.0, 0.0, 0.0, 0.004154451566985439, 0.0, -0.01067531647443252, 0.0, 0.0, 0.0, 0.0, -0.00712279708732625, 0.0, 0.0, 0.007509403368122751, -0.004190582698045085, 0.0, 0.0, -0.011243137872210549, -0.018270083289890934, 0.0, 0.0168718525267467, 0.007395581283477849, 0.0, 0.009396029874106227, -0.03361381950545037, -0.0024984792420537525, -0.021779156633298803, -0.011732913441690857, -0.024218386704841444, 0.0, 0.0, -0.020292822146340775, 0.02791036206975665, -0.006711188698546443, -0.013085479666018562, 0.011346590611355522, 0.03253883205856762, -0.025691071941042577, 0.0, 0.0, -0.06026009184406532, 0.0, 0.0, 0.004182160949290645, 0.0, 0.0, 0.0, 0.01302114093639671, 0.0, 0.0, 0.0, -0.020131531768811724, 0.0, 0.007407129240111729, 0.007639650524657083, 0.009856138078219421, -0.011513717778694256, 0.006245253520621905, 0.0, 0.0, 0.010513664736616971, 0.0, 0.012251592416429443, -0.010495839155552397, 0.016870191205615802, 0.0, 0.01795278050511825, -0.013295846561404586, 0.004380591829815547, 0.0, 0.009451188048304388, 0.0, 0.0, 0.0, 0.0, 0.051985196654617295, -0.009520281061335841, -0.02815839360498871, -0.03413802904877401, 0.00863990488032826, 0.0002085797466953154, -0.011993820739404262, 0.0, 0.0, 0.0, -0.008540860282274607, 0.02056102115751791, 0.0, 0.04626349631606035, -0.03893977693334916, 0.0, -0.007110605873314681, -0.008269286115193694, 0.0, -0.0008981401195430641, 0.014607242007673193, 0.1257393024624047, 0.011346590611355522, -0.006197301631478665, 0.0, -0.01717579284350684, 0.0, 0.0, 0.0, 0.02740421450739682, 0.02213667446951513, 0.020775369890592636, 0.0, 0.0, -0.017228732096213815, -0.019760662298176582, 0.012251592416429443, 0.012907993103607334, 0.0033868566730506752, 0.0, 0.0, 0.023885671433735805, -0.010816658397042992, 0.0, 0.009694471995374725, 0.0, 0.0, 0.0, -0.08708939620347902, 0.0, 0.0085729169972348, 0.02740421450739682, -0.0008351372531473371, 0.0, -0.031083478090618625, -0.0015111166493902211, -0.007800955387223463, 0.0, 0.0, -0.0013565579471823028, 0.002007577749264353, 0.0, 0.00396277662464828, 0.0, -0.019973563463647533, 0.0, -0.029682211831364616, -0.025436072246101574, -0.006067005009515963, 0.0034443469340741935, -0.004923348855565119, 0.0, 0.01604810715600705, 0.01844344399105565, -0.003313896731405413, 0.0, 0.0, -0.0059637500918975055, 0.0, -0.005634061796170569, -0.02747637323859277, -0.013898139021085686, 0.009856138078219421, 0.0034443469340741935, 0.0, 0.0, 0.005306476273250238, 0.0, 0.0, 0.005669933592791241, 0.0, 0.0, 0.010149179551420213, 0.0, 0.009337705633918449, 0.0, 0.0, 0.030953244305291092, -0.011651109220063748, 0.0, 0.0, 0.0, -0.04034635205470413, -0.008040690408119113, -0.003472931677928147, 0.0, 0.024994482821941673, 0.002874099236232078, -0.0056441539142090555, -0.029961316155883797, -0.0024984792420537525, 0.025254135565592584, 0.0, 0.014200937121609428, 0.0, 0.0, 0.0, 0.0, 0.0, 0.0, 0.03356457947209238, 0.0, -0.014199334559011364, 0.0, 0.013069603806522976, 0.0, 0.0, 0.0, 0.0014258385352866087, -0.037960311748205244, 0.01268518562824838, 0.0, 0.0, -0.004576168436941464, 0.0, -0.00808803621437681, 0.005480610807099836, 0.0, 0.0, 0.033321873987407276, 0.0, 0.0, -0.04955372664881255, 0.0, -0.005419695859470758, 0.0, -0.04279455030591269, 0.0, 0.0, 0.0019848936683268237, 0.0, -0.003087770007237046, 0.0, -0.019973563463647533, -0.023248003055364348, 0.0034443469340741935, 0.0, -0.004190582698045085, 0.003960288804097693, 0.0, -0.022652530587253673, 0.0, 0.0, -0.005495671893483128, 0.026516105030936248, 0.0, 0.0, -0.03504413034726891, 0.0, -0.01602092493556955, -0.017487813432639172, 0.010330893085002991, -0.00598044216359066, 0.006818667636007592, 0.0, 0.012312328286894785, -0.015247064145345244, 0.0, -0.03088157497882312, 0.019595339953701375, -0.004332687346069472, 0.017131747734485166, 0.0, 0.0, -0.017487813432639172, 0.0, 0.0, -0.013548501888893418, 0.017088089479589747, -0.0011664496038834846, -0.02947386851391673, 0.0, 0.0, -0.018013228706596905, 0.0, -0.0608964558802385, 0.013215963203559052, -0.02051474088326402, 0.007207144564001528, 0.009338442820015202, -0.03504413034726891, 0.0, -0.005932768106267506, 0.0, -0.01964589261217001, 0.0, 0.0, -0.014236361371580998, -0.006787266585363075, 0.0, 0.0, 0.0, 0.0, 0.0, 0.0, 0.0, 0.0, -0.012561766778910086, 0.0, 0.05339727393941204, 0.0, 0.0034869184967467335, -0.03039793106143536, 0.0, 0.007426238788644962, 0.0034443469340741935, 0.0, 0.0026460024608608154, 0.023426534412454784, 0.0, 0.0, 0.006196804405060854, 0.0, 0.0, 0.0, -0.011513717778694256, 0.00028896821087906363, 0.0, -0.003087770007237046, -0.03691561674026129, 0.0019238608857662966, -0.004190582698045085, -0.03282733000963574, -0.015932055001752196, 0.0, 0.0, 0.003549929400659892, -0.025468138597925512, 0.0, 0.01906303980006582, 0.0, 0.0, 0.0, -0.045716534492871296, 0.017131747734485166, 0.013163762432459647, -0.005268593237081179, 0.0, 0.0, 0.0, 0.0, 0.02103620671138199, 0.02213667446951513, 0.03412548481426495, -0.0271421185341624, 0.018847568742067895, 0.0428346711420901, 0.017860210863527945, 0.027488141537267162, 0.0, 0.0, 0.0, 0.0, 0.0, 0.0, 0.0, -0.021331624187325048, 0.024175248831950276, 0.0, 0.0, 0.017327265924404704, -0.012382658931906968, 0.03253883205856762, -0.007110605873314681, -0.0021562380076365715, -0.008277506979771887, -0.005219140673864278, 0.01396845508230972, 0.0, -0.01671833674531793, 0.0, 0.02262815781776395, 0.0, 0.0019238608857662966, -0.027243226566148485, 0.0, 0.012281023677957026, -0.03408659666641038, 0.004595492905413892, 0.0, 0.0, 0.0, 0.0, 0.04113995069148573, -0.01867735153406473, 0.0, 0.005454290095674735, 0.0, 0.0, -0.04944573666846842, -0.026401952003644348, 0.005140425308210987, -0.013085479666018562, -0.005049757373769283, 0.0, -0.015226007778343776, 0.010757628466085798, 0.0, 0.0, 0.0, 0.005306476273250238, 0.0, 0.0, 0.0, 0.011427052357588674, 0.0, 0.0034443469340741935, -0.015932055001752196, 0.0, 0.0, 0.0, 0.0, 0.016807605450286093, -0.0231505340595737, 0.0, 0.0, 0.0, 0.001906210585865992, -0.05266825822165798, 0.0005309412401096171, 0.0, 0.01268518562824838, 0.005310717558816997, 0.0, -0.021055844352951898, -0.009661118937897546, -0.021389154654642407, 0.0, 0.0, 0.0, 0.0, 0.0, 0.0, -0.0244545125938323, 0.0, -0.0010317552559240746, -0.01379925221145722, 0.0, 0.0, -0.031178918289980106, 0.055625464541803706, 0.01032624272436849, -0.006171775181187708, 0.0, -0.0003520934363063363, 0.014200937121609428, 0.0, 0.0, -0.0011080816641434576, 0.0, 0.033123051093864965, -0.012084264423623496, 0.013163762432459647, 0.0, 0.033189023986467815, 0.0, -0.03354553388520416, 0.061758037059090165, 0.10742024501956936, 0.0, -0.01261639989307494, 0.0, -0.008007904653799284, 0.0, 0.0, 0.0, -0.03282948841631502, -0.05173302480970716, -0.0110695972728722, 0.0, 0.012251592416429443, 0.04067635762169165, 0.0, -0.026932054877418746, 0.0, 0.0, -0.020292822146340775, 0.0, 0.0, 0.0, 0.0, -0.03337041683180465, 0.0, 0.04241892563333951, 0.0, 0.0, -0.021750086479228513, 0.0, 0.0, 0.007944600170361882, 0.0, 0.0034729316779281583, -0.0039220733440376515, 0.006818667636007592, -0.03413802904877401, -0.02947386851391673, 0.06050616558606618, 0.022048539173124777, -0.001528955408359793, 0.0, -0.015247064145345244, -0.0023141641859151635, -0.01261639989307494, 0.0, 0.01774473219746985, 0.0, 0.0, 0.0, -0.0034418529171910597, 0.007944600170361882, 0.0, -0.011878641383701191, -0.004190582698045085, 0.0, -0.009648286357279741, 0.0, 0.017131747734485166, -0.02947386851391673, 0.0, 0.055595307679185205, 0.0, 0.0, -0.022886628647647293, 0.0, 0.0, -0.027959066744527968, 0.0, 0.0, -0.012382658931906968, 0.0, -0.01303213423902768, 0.007611644648851995, -0.024440408162611293, 0.007207144564001528, 0.003884081588737864, -0.013292149477791339, 0.014909746940024182, 0.023536039427806524, 0.014654608955582729, 0.008164285883093375, 0.0, 0.0, 0.0, -0.029983561020591746, 0.00826816901534194, -0.011946283239511865, 0.0, 0.023913363182535258, 0.0, 0.0, 0.0, 0.0038717489337352896, 0.0, 0.0, 0.02433621792584822, 0.0, 0.0, 0.0, 0.0, -0.029323847935759973, 0.022801344201249303, 0.012490179860917298, 0.0166396858202949, 0.029652178103792948, 0.0, 0.009694471995374725, 0.007907948901387065, 0.0, -0.007099586959297302, -0.009990272294548477, 0.0, -0.006024511951579393, 0.0, 0.0, 0.0, 0.03892261133391714, -0.0059637500918975055, 0.0, 0.0, 0.0, 0.007964611999219566, -0.004905910728054737, 0.0, 0.005165690874434798, 0.005306476273250238, 0.0, -0.008278819597729786, 0.016902486370954015, -0.0007655258227804071, 0.0, 0.0, 0.002525974861016482, 0.0, 0.0, 0.0, 0.0, 0.020293608634082146, 0.003387943721556272, 0.0, -0.004460776160676462, 0.0, -0.022697300813679544, -0.03928671551634281, -0.001128491966795251, -0.003087770007237046, 0.014200937121609428, 0.0013144688412310688, 0.0, -0.05806394795176805, 0.0, 0.0, 0.01338519466001738, 0.0, 0.0, 0.0, -0.0021150701353879124, 0.009974133327014903, -0.005932768106267506, 0.048011779394413465, -0.0006798164511118922, 0.011995947882250536, -0.024688603543016392, -0.0077557005414667715, -0.01408520949686038, 0.0, 0.013069603806522976, 0.0, 0.0, 0.0, 0.0, -0.012561766778910086, 0.0, 0.0, 0.0, 0.0, 0.0, -0.007415546073227315, 0.00396277662464828, -0.01632989231603888, 0.0, 0.0028195099066329336, -0.011277786529527567, 0.0, -0.007110605873314681, 0.0, 0.009974133327014903, 0.0, -0.01701124214083991, -0.015929570913060277, -0.004774205325807855, 0.0, 0.0, 0.0, 0.022346063223316684, 0.0116186586306601, -0.007110605873314681, 0.0, 0.0, 0.0010586153107212531, 0.006011378344352851, 0.0, 0.012543461950710029, 0.042587465508628096, 0.020991555967887456, 0.000219985056941241, 0.0, -0.03953120559587973, 0.0, 0.0015328269687456947, 0.0, 0.0, 0.0, 0.006245253520621905, 0.0, 0.0, 0.0, 0.0, 0.001978905138458866, -0.015247064145345244, 0.030881335851698468, -0.02589326508218288, 0.0, 0.04213549972494312, 0.0, 0.0211425258256746, 0.021883158331347692, 0.0, -0.007110605873314681, 0.0, 0.019595339953701375, 0.0, 0.0, -0.014825334975323585, 0.0, 0.0, -0.0181301639576164, 0.0, 0.0, 0.0, 0.029669857558653822, 0.0, 0.0, -0.015932055001752196, -0.01910876117015199, 0.0, -0.002589656959575314, 0.0015480564772330921, -0.027108408862845296, 0.004307538802977152, -0.04034635205470413, 0.0, 0.0, 0.025528751049072495, -0.009419474608324326, 0.0, 0.011594487937815486, -0.012382658931906968, 0.0, 0.011594487937815486, -0.00462648521267694, 0.04199354402449802, 0.002465152802504852, 0.0, 0.01167438856759235, -0.01187833758669859, -0.01030491352705476, 0.021892060695515362, 0.0, 0.0002785960709899342, 0.0, -0.004190582698045085, 0.0, 0.0, 0.005454290095674735, 0.0, -0.008658061202935004, 0.00892722177360289, -0.01379925221145722, 0.0, 0.0049851685388482446, -0.015994991571588863, 0.0, 0.0, 0.005140425308210987, 0.0, -0.010595710071796913, 0.016593351809349025, -0.07669883092556484, -0.006787266585363075, 0.0033868566730506752, 0.014200937121609428, 0.017088089479589747, 0.0, 0.0, 0.0, 0.03253883205856762, -0.013720727246163078, 0.00513792699508091, 0.0, 0.0, 0.0, 0.0, 0.009859935830309363, 0.012251592416429443, 0.0, 0.0, 0.0, -0.009661118937897546, 0.02096950515355076, 0.005454290095674735, -0.021402788329254893, 0.0, -0.000505768184875639, -0.057345471767498976, 0.00873313159129324, 0.0, 0.0, -0.03658447438723141, -0.010287891146277707, 0.025598891268927268, 0.0, 0.003778458745464808, 0.0, 0.0, 0.0, 0.0, -0.0024912955190639374, -0.03892672843415187, -0.019147773556679133, -0.013085479666018562, -0.013720727246163078, -0.000505768184875639, -0.01338674349391991, 0.0, 0.003264453043107232, 0.0, -0.0001857152307869597, -0.013720727246163078, -0.009419474608324326, -0.008492775938206984, -0.027749518803360296, -0.009419474608324326, 0.0, 0.0, -0.014757553242247985, 0.019224204434675193, 0.03938834931570476, -0.020974018765488194, 0.0, -0.005268593237081179, 0.0, -0.0013565579471823028, 0.0, -0.00462648521267694, 0.0, 0.0, 0.0, -0.0013565579471823028, -0.010968553760613484, 0.0, 0.015559631341152659, 0.018093866809335533, 0.0, -0.01261639989307494, -0.006024511951579393, 0.03994270847935216, 0.027252519300665617, 0.0, 0.0, -0.01261639989307494, -0.01835115225594316, 0.0034729316779281583, 0.0, 0.0, 0.0, 0.0, 0.0, -0.0030405390361544437, -0.03967925357488853, 0.0, 0.018959423565886865, -0.016723590283738293, -0.02608480012268186, 0.02080950809454822, 0.0, 0.03718771167247971, 0.0, 0.040886858276163125, -0.011200812268764926, -0.019741275837604495, -0.020974018765488194, -0.01941251789642076, 0.04105676228042562, 0.009476202547677207, -0.007305432870985465, 0.0, 0.002425166119643532, 0.025173403903749832, -0.014508177899336205, 0.0, 0.009974133327014903, 0.002454802125875908, 0.040886858276163125, 0.0, 0.0, 0.0, -0.001520230637663974, 0.00685812248400606, 0.0023663850578818286, 0.0, 0.0074288706271535086, 0.0, 0.010870907953594853, 0.0, 0.0, 0.0, 0.01625045355623021, 0.013118246984792907, 0.0, 0.0, -0.012084264423623496, 0.016593351809349025, -0.03619574794447164, 0.09558530670196372, 0.0, -0.019386431428547755, -0.00912375497097374, 0.01031620437820702, -0.02422176986396696, 0.023510476354970968, 0.006281726251683413, 0.004871916190507778, -0.026221861267996607, 0.0, 0.0, -0.013085479666018562, 0.0, 0.0, -0.0035843668340566123, 0.026711624078570126, 0.0, 0.0070039534743671274, -0.018058201550162658, 0.0, 0.010513664736616971, 0.01356125438201733, 0.0, 0.0, -0.009520281061335841, 0.0, 0.010220707080062693, 0.0, -0.008949056326535023, 0.0, 0.0, 0.0, -0.024094308393460023, 0.0008346162383061086, 0.0, 0.009694471995374725, 0.009337705633918449, 0.025173403903749832, 0.0, 0.0, 0.0, 0.02261221628564309, 0.007311818643882919, 0.0, 0.06036058674863444, 0.0, 0.0, 0.015493427715985832, -0.005955274387605835, -0.005634061796170569, 0.00871546172022838, 0.03703786680293863, 0.0, 0.0, -0.0027259288089383194, -0.026433159197533085, 0.0, -3.705053236089141e-05, 0.0, 0.04859083426655347, 0.002529446953244549, 0.0, -0.01738393735017247, 0.044606586662294466, -0.006046791608554626, -0.018919695514988347, 0.03253883205856762, 0.0, -0.013085479666018562, 0.0, 0.009337705633918449, -0.018047125137140137, -0.016781654828223837, 0.0005309412401096171, 0.0, 0.0, -0.011773808868697772, 0.009322106987900371, 0.0, -0.020432323043380805, 0.0, 0.014078245082379412, 0.0, 0.0, 0.017131747734485166, -0.004855288768490451, -0.014811680061515979, 0.0, -0.0013565579471823028, 0.01289575121548262, 0.0, 0.026537250413197967, -0.01738393735017247, 0.034260208142980454, 0.0026460024608608154, 0.004880843918850948, 0.0019238608857662966, 0.0, 0.0033868566730506752, 0.03598317899264182, 0.0, -0.014438889450993385, 0.0, -0.0019258372616970517, 0.00767284762626396, 0.0, 0.0, -0.009419474608324326, 0.021589379351936156, 0.0, 0.0, -0.011081014745437162, 0.0, 0.014127457789880926, 0.0034443469340741935, 0.0, 0.0, 0.0, 0.0, 0.0, -0.04709806489947851, 0.0, -0.015379114694813595, 0.0, 0.045463842474574065, 0.0, -0.003313896731405413, 0.011495063155685792, -0.026527765073549144, -0.039253132331155176, 0.0, 0.0, -0.005743191284699646, -0.022560274340271295, 0.017914984186558038, 0.0, -0.008254999999108842, 0.0, -0.0158838730795413, 0.0, 0.0, 0.0, -0.0013565579471823028, 0.010186706386194623, 0.0, 0.0, 0.05634821875720459, 0.03244653223978859, 0.0, 0.0, 0.014848528888896598, 0.0, -0.0179423115662685, 0.007809131914066757, 0.0, 0.0031237637095801814, -0.012390099107550115, 0.06109350453665603, 0.0, 0.02971072548256091, 0.0012334114718154535, 0.036084095452957134, 0.0, -0.004332687346069472, 0.0, -0.007110605873314681, 0.014200937121609428, -0.013103820550068063, 0.0, 0.012866279946779451, 0.0, 0.0, -0.010098971463585979, -0.021658935687251506, 0.0, 0.015225064297646154, -0.000505768184875639, 0.0, 0.05726375274622478, 0.008146325955486812, -0.007164827509157194, 0.0, 0.0, 0.009476202547677207, 0.0, -0.009990272294548477, 0.0, 0.005650877310678296, 0.0, 0.006172352863179758, 0.0, 0.01581487610784697, 0.0, 0.025449614382099084, 0.0, -0.008314451274277747, -0.011151341631354346, 0.0, 0.006818667636007592, 0.0, -0.010813762510947907, 0.0, 0.0, 0.032146192852658316, -0.007203876300586156, 0.0, 0.0, 0.0, 0.03516934124348522, 0.0, 0.0, 0.03253883205856762, 0.0, 0.031302581599352494, -0.0023141641859151635, -0.01091672245330081, 0.017783280524975905, 0.0, 0.0, 0.0, 0.0, -0.019006032300360028, 0.0, 0.006951467372066654, -0.01338674349391991, 0.0, 0.0, -0.02739463179503895, 0.0, 0.0, 0.015007639226709687, -0.01240605774973477, 0.0, 0.0, -0.0024984792420537525, 0.0, 0.0, 0.0, 0.0, -0.043594263719915934, 0.0, -0.004190582698045085, 0.002183784437978321, -0.04709806489947851, -0.005382239030226064, 0.0, 0.0, -0.01632989231603888, 0.00506944092249849, 0.0, 0.0, -0.006692035461021046, -0.016861417811645688, 0.0, 0.016207396232145076, 0.0, -0.009473379401668456, 0.013163762432459647, 0.021704665148871812, 0.0, 0.0, 0.003955136476504423, 0.0, 0.04219219058358682, 0.009337705633918449, 0.005263910884256229, -0.0020723878318196203, -0.006024511951579393, 0.0013404077032974663, 0.0023663850578818286, 0.0, -0.023233912432143015, 0.011495063155685792, 0.0, 0.0, 0.0, 0.01625045355623021, 0.0, 0.0, -0.021085685572251434, 0.01167694726183883, 0.005474712562266988, 0.0, 0.0, 0.0, 0.011230422059470158, 0.0, 0.03703786680293863, 0.0, 0.0, 0.010159283645091326, 0.0, 0.008915956220290656, -0.011151341631354346, 0.0, 0.0, -0.005495671893483128, -0.005268593237081179, 0.027243448216825988, -0.021058148248641172, 0.0, 0.0, 0.0, 0.004886360014691156, -0.014858441577903303, 0.0, 0.0, 0.0, 0.0, 0.03625972057854138, -0.011513717778694256, 0.0, 0.0, 0.003224888090610666, 0.0, -0.013967743926066055, 0.0, 0.013163762432459647, -0.00017768670175945735, 0.023306186746081245, 0.00043907193873270043, -0.0076157447057499045, 0.0, 0.0, 0.015918703095410484, 0.0, 0.01900543509525124, 0.0, -0.015247064145345244, 0.0, 0.007944600170361882, 0.012120086385068733, 0.0061530922995395405, 0.0, 0.0, 0.0, 0.023559138100767176, 0.0, -0.00553001608166644, -0.02029564693789058, 0.0, 0.0, -0.0040462985871617405, 0.0, 0.0, 0.0, 0.0, 0.0049851685388482446, 0.028822329080090518, 0.0, 0.0, -0.015932055001752196, 0.0, 0.0, -0.023564962500227268, 0.039197699479549694, 0.0, 0.0, -0.004559527404975991, 0.0, 0.0, 0.013073261552888486, -0.029355915480279608, 0.0, 0.0, 0.05254111437050591, 0.006172352863179758, 0.0, 0.01625045355623021, 0.0, 0.0, 0.04067635762169165, 0.014654608955582729, 0.0049851685388482446, 0.0, 0.0, -0.06311898983504807, 0.0, 0.005669933592791241, -0.03604391760286482, 0.0, -0.0037367252318392928, 0.0, 0.0, -0.04446259045476673, 0.017914984186558038, 0.0, 0.0, 0.015559631341152659, 0.0, 0.017131747734485166, 0.0, 0.0, -0.0019048079940962805, 0.0, 0.0, 0.0, 0.0, 0.0, 0.0, 0.0, 0.002306412759161599, 0.0, 0.032342851444628194, 0.0, 0.0, 0.0, 0.0020597870801524463, -0.047391258599433404, 0.0, 0.020771612858478904, 0.0, 0.0, -0.01065916749131659, 0.019343793898077572, 0.0, 0.0168718525267467, 0.006281726251683413, 0.021810306347435044, 0.003896840026886567, 0.01031620437820702, 0.02433621792584822, -0.004332687346069472, -0.0027259288089383194, 0.0, 0.0, -0.03024020603886385, -0.007410146555441025, 0.015559631341152659, 0.0, -0.014438889450993385, -0.03337041683180465, 0.01983432626039682, 0.0, 0.0034729316779281583, -0.01560880696820462, 0.0, 0.0022843013925339306, -0.0021562380076365715, -0.028181163329489726, 0.012543461950710029, 0.0, 0.0019848936683268237, 0.0, 0.003955136476504423, 0.00389144566545561, 0.0, -0.007155188971580502, 0.0, 0.0, 0.0, 0.01168785800034819, 0.0, 0.017351765560104402, 0.0, 0.0, 0.008460434016021761, -0.004892210501721419, 0.0, 0.037251242903684346, 0.0, 0.0, -0.007038175054602921, -0.042385202305495556, 0.0, 0.0, 0.021883158331347692, 0.0, 0.02215669018917797, 0.0, 0.0, 0.017569865717656827, 0.0, -0.009683729490377444, 0.004885881629408574, -0.0026676323593204524, -0.00840521816915034, -0.005742463760945352, 0.0, 0.029741335552223715, 0.0, 0.0, 0.0, 0.0, -0.003313896731405413, -0.008658061202935004, 0.031302581599352494, -0.007575664622280401, -0.009818854303548735, 0.017872418891143372, 0.017569865717656827, 0.0, -0.004559527404975991, -0.000505768184875639, 0.0, 0.0, -0.0007462357639708888, 0.022317509925493403, 0.0, 0.0007137572990394615, 0.0, -0.008661990818167757, 0.021883158331347692, 0.0, 0.023723917224246042, -0.0020725814555099193, -0.013085479666018562, 0.0, 0.009537517182932729, 0.0, 0.0, -0.009520281061335841, -0.005932768106267506, -0.00808803621437681, -0.01101495202493925, 0.0, 0.0, 0.0, 0.0022162213934624354, 0.0, 0.0, -0.016168238008698273, 0.0, 0.0, 0.0, 0.0, 0.0, 0.0001597007772814638, 0.0, 0.010347585426238206, 0.0, 0.021883158331347692, 0.044089706050375904, 0.0, 0.021883158331347692, 0.0, 0.0, 0.0, -0.0011705221196137863, -0.029827570241981603, 0.0019848936683268237, 0.003123987342385699, -0.013085479666018562, 0.0, 0.0, 0.0, 0.031784621933671854, 0.0, 0.0034729316779281583, 0.005715274671119804, 0.0, 0.0, -0.020591785895447322, 0.01774473219746985, 0.0, -0.0008351372531473371, 0.021883158331347692, 0.0, -0.014811680061515979, 0.0, -0.004892210501721419, -0.015381764460960547, 0.0, 0.025830129405441424, -0.023936804204304413, -0.01905044418961323, -0.004892210501721419, 0.012543461950710029, -0.0015981350090402057, -0.0024984792420537525, 0.0, 0.0, -0.022176764842803436, -0.009520281061335841, 0.0, 0.0, 0.0, 0.0, 0.018871911812351372, 0.005454290095674735, -0.0077557005414667715, -0.011215818150734302, 0.0, 0.004886360014691156, 0.0003940832793625342, 0.0, 0.0, 0.0, -0.017155099803705665, -0.04071586229825827, 0.0, -0.02947386851391673, 0.0, 0.0, -0.035295713593601896, 0.018291411688016138, 0.0, 0.01120025761282457, -0.0033071921497538127, -0.005816244082712183, 0.035673526580401876, 0.017131747734485166, 0.03402900352407836, 0.0, 0.0, 0.0, 0.0, 0.0, 0.0, 0.0, 0.0, 0.0, 0.013358655082711716, 0.0033453936842559244, 0.0, 0.012904410827085823, 0.02017210135617264, 0.0, 0.021002806762869884, 0.0, -0.0043533674230551355, 0.0, 0.0, 0.0, 0.0, 0.0, 0.0, 0.0, 0.0, 0.0, 0.0, -0.003967052670598695, 0.0034811831970627937, -0.02256204982341906, 0.0037107321341548483, 0.0, 0.0, 0.005454290095674735, 0.0, 0.0, 0.0, 0.0, 0.0, 0.0, 0.0, 0.0, -0.003472931677928147, 0.0, 0.021883158331347692, -0.025948691137897644, 0.0, 0.018539117608003343, 0.0168718525267467, -0.007305432870985465, -0.007110605873314681, 0.004885881629408574, 0.008121384889277902, 0.008181166424280396, 0.021883158331347692, 0.0, 0.0, -0.06318285449340283, 0.0, -0.009823962699577134, 0.009856138078219421, -0.00221326357980124, 0.005454290095674735, -0.012382658931906968, -0.011140240398614975, -0.010168732403843873, 0.0, 0.006033682664365862, -0.0030105568005272445, 0.0, 0.0, 0.0, 0.0, 0.000760241329971703, -0.0009183720730577134, 0.0, 0.07347043325260087, 0.018644229029642977, 0.006951467372066654, -0.012414931309704875, -0.013825441639965982, -0.022553843696888887, 0.025079625760025703, 0.0, -0.007705970902014556, -0.009203953772835793, 0.0, -0.01261639989307494, -0.011015846746801575, -0.000505768184875639, 0.0, 0.012907993103607334, 0.046262905108883305, 0.0, 0.0, -0.024778504493061425, 0.0, 0.0, 0.0, -0.010578638668741093, -0.005370182438167166, -0.027602370669921928, 0.0020597870801524463, 0.021580554616354802, 0.01625045355623021, 0.025829747124153302, -0.02272282207090423, 0.0, 0.0, -0.005454290095674727, -0.01097876366900504, 0.0, 0.0, -0.0063575333345134415, 0.006172352863179758, 0.017327265924404704, 0.0, 0.0, 0.0002085797466953154, 0.0, 0.0, 0.0, -0.011275405574663685, 0.007523202659218432, 0.0, 0.0, 0.01031620437820702, 0.0, 0.0, 0.0007137572990394615, 0.0, 0.003549929400659892, 0.0013404077032974663, 0.0, 0.0, 0.019391862812283757, 0.0, 0.03261095720617393, 0.028799244811943816, -0.02081620688560072, 0.003387943721556272, 0.0, -0.0018893972815337047, -0.008040690408119113, -0.014825334975323585, 0.005853720583236157, -0.0077557005414667715, 0.0, -0.014878661327608912, 0.020824943402027722, 0.0, 0.00836808579681287, 0.0, 0.0, 0.038662893652753556, 0.02026430871362474, 0.0, -0.04388251021390619, -0.01602092493556955, -0.022479147984840527, 0.0, -0.0020723878318196203, -0.015226007778343776, 0.06367443915537885, 0.0, 0.02356588343086095, 0.006818667636007592, 0.0, 0.0, 0.019528484396008863, -0.004892210501721419, 0.026242887195616543, -0.026907176257985766, 0.0, -0.0020833017128855957, -0.003313896731405413, 0.0, 0.0, -0.0020456721241865782, 0.0, 0.0, 0.001906210585865992, 0.009337705633918449, -0.008886238807997248, 0.0, 0.003884081588737864, 0.0, 0.006281726251683413, 0.02986481858253859, 0.005669933592791241, 0.0, 0.0, 0.0016025949352368573, 0.00157198489800316, 0.0, 0.0, -0.010840778263987582, -0.021389154654642407, 0.0, 0.0, 0.0, 0.0, 0.0, -0.026150047411040944, 0.0, -0.028181163329489726, -0.01632989231603888, 0.0, -0.023601730420919433, 0.0020597870801524463, 0.0, -0.03504413034726891, 0.0116186586306601, 0.0, 0.002425166119643532, 0.0, -0.01312710240463154, 0.0, 0.0, 0.0, 0.0, 0.02262815781776395, 0.0, 0.0015328269687456947, -0.0027036021946352205, 0.008693332946300921, 0.0020597870801524463, -0.014858441577903303, 0.0, 0.0, 0.0, 0.03583290190578056, 0.0, -0.023098870868364787, -0.000505768184875639, 0.0, 0.0, 0.0, 0.0, -0.025436072246101574, 0.006387161492953039, 0.0, 0.00030396330441501027, -0.030728811915128176, 0.0, 0.0007840519633826667, 0.04766659310331658, 0.0020597870801524463, 0.0, 0.0085729169972348, 0.0005335823958205325, -0.007110605873314681, -0.02547433245651616, -0.019760662298176582, 0.017524948125797107, 0.03479115143495502, 0.009048602348584732, 0.0, 0.0, 0.0, 0.012336313291588538, -0.02691993737582919, -0.0001857152307869597, 0.0, -0.006560201913050535, 0.0, -0.0010317552559240746, 0.01811977755784601, 0.0, 0.009477364166361493, -0.007774814121119677, 0.0, 0.0, 0.013163762432459647, -0.011219071489012475, 0.0, 0.006323078578706485, 0.0, 0.035585116737242864, 0.02432426520568441, 0.0014258385352866087, 0.0, -0.018825494248501995, 0.0, 0.0, -0.00462648521267694, 0.0, 0.0, 0.023069380883947083, 0.0, 0.0, 0.00583886847713123, -0.00462648521267694, -0.010287891146277707, 0.0, 0.0, -0.01602092493556955, 0.0, 0.0, -0.02535382928461475, -0.003014425589650232, -0.005595601898415248, 0.017006290639257644, 0.0, 0.0, 0.0031338549614993547, 0.0, 0.0, 0.0, 0.0, 0.05337410218937513, 0.0016490485792648654, 0.0, 0.008996208471839377, -0.012561766778910086, 0.012336313291588538, 0.0, -0.007570605090865057, 0.0010636254225732248, 0.0, 0.03742599242848224, -0.011513717778694256, 0.0, 0.04711834957198596, -0.009001810624723343, 0.0, 0.014200937121609428, 0.013388829771020152, 0.0, 0.00836808579681287, 0.0, -0.019895701098916297, -0.0024792804930993083, 0.0, 0.0, 0.0022843013925339306, 0.02317389807787893, 0.007534826822505009, 0.0049851685388482446, -0.008007904653799284, -0.03447127750637076, 0.0, 0.0, 0.012026761553378937, 0.016048163260479344, -0.013085479666018562, 0.0, 0.016485499906302672, 0.0, 0.0, 0.0, -0.0076299516477636165, 0.0, -0.004797211232417771, 0.00048518291100501656, 0.0, 0.0, 0.0, 0.0, 0.0, 0.0, -0.005634061796170569, 0.003549929400659892, 0.0, 0.02313006462969187, 0.0, 0.0, 0.0, 0.0, 0.0, -0.03457970503391248, 0.0, 0.001906210585865992, 0.02313006462969187, -0.005997388914004965, 0.0, -3.705053236089141e-05, 0.015258864292735994, 0.0, 0.07939559211168834, 0.011495063155685792, 0.00578832911509001, 0.0, 0.007907948901387065, 0.0002085797466953154, 0.0, 0.0, 0.022459739242641167, 0.03471322578441927, -0.009661118937897546, 0.0, 0.0, 0.014654608955582729, 0.016968309805870323, 0.008209763148111117, -0.026092215066189767, 0.0, -0.01215806674293904, 0.0, 0.0, -0.003210826616223946, 0.021580554616354802, 0.0, 0.023094567153759203, 0.005650877310678296, 0.0, 0.0, 0.008609149382143562, 0.0, -0.008501963753116558, 0.0, 0.0, 0.021665047724802346, 0.023094567153759203, -0.027860762995285143, 0.0, 0.0, 0.02736058406504499, 0.0, 0.0, 0.0, -0.00912375497097374, 0.0, 0.0, 0.0, 0.0, 0.0, 0.0, 0.0, 0.0, -0.01703270342129122, -0.01910876117015199, 0.0, 0.025528751049072495, 0.0, 0.007944600170361882, 0.0, 0.0, 0.007800148750156911, -0.024482063450123354, 0.0005968788402455519, 0.0, 0.0, -0.01559617775448844, 0.0013916610820288635, 0.020146378279760756, -0.026225590252608278, 0.013790976208810651, -0.019987671534228195, 0.0, 0.0, -0.012949586785194513, -0.006024511951579393, 0.0, 0.0006895428768422452, -0.007038175054602921, -0.034839784049196854, 0.0, 0.0, -0.0017119884521329565, 0.0, 0.015208069585462745, 0.010546405363488555, 0.0, 0.0, 0.015147795524096121, 0.0, 0.0007137572990394615, 0.02703225314715912, -0.007110605873314681, 0.0, 0.0, -0.02032668678088013, -0.0077557005414667715, 0.026242887195616543, 0.0, -3.705053236089141e-05, 0.005275313508884289, -0.01413366589054015, -0.00943081626636001, 0.0, -0.02601816771490414, -0.019973563463647533, 0.0, 0.01774473219746985, 0.0, -0.018058201550162658, -0.021298115992025503, 0.0, 0.006281726251683413, -0.003472931677928147, 0.06726121936799656, 0.0, 0.0, -0.0024984792420537525, 0.005669933592791241, 0.017131747734485166, 0.03813361188757791, 0.0, 0.0, 0.0, 0.0, 0.0, -0.022284386493719135, 0.048471213356392914, -0.01701124214083991, -0.09001982253409985, 0.015404845876870478, -0.015932055001752196, 0.00040370003597104987, 0.0, 0.0, 0.0, 0.0, 0.0, 0.0, 0.02149493874108673, 0.0, -0.01867735153406473, -0.025759507706203347, 0.014192510529974897, 0.02227089776575255, -0.0013273268879712113, 0.0, -0.019672372652224792, 0.0, 0.0, 0.0, 0.0, -0.011313776760359684, 0.0, 0.0034729316779281583, -0.011878641383701191, 0.002336514422898147, -0.01632989231603888, 0.0, -0.007800955387223463, -0.01738393735017247, 0.0, 0.0, 0.003960288804097693, 0.0, -0.011513717778694256, 0.0, -0.021389154654642407, 0.0, -0.0013565579471823028, 0.0, 0.01224774590011191, -0.005533921351312788, 0.0, 0.01094186944658366, 0.009476202547677207, 0.007130209269281148, -0.03170644717437584, -0.01586589342406345, -0.008949056326535023, -0.005454290095674727, 0.0, -0.005268593237081179, 0.0, 0.0, -0.02589326508218288, 0.0, -0.0033071921497538127, 0.0, 0.0, 0.010471967552268422, 0.0011334804346534821, -0.0021150701353879124, 0.0, 0.0, 0.0, 0.009784901921233106, 0.0, 0.0, -0.04285309648661204, 0.0, 0.0, 0.0, 0.0, 0.0, 0.04207596897306766, -0.0021150701353879124, 0.010471967552268422, 0.033078379887822494, 0.014200937121609428, 0.003224888090610666, 0.0, 0.0, 0.06563739383714716, 0.0, -0.00462648521267694, -0.02677095392003115, 0.01094186944658366, 0.0016490485792648654, 0.0019238608857662966, 0.0, -0.020292822146340775, 0.0, -0.004190582698045085, 0.0, 0.0019238608857662966, 0.0, 0.009856138078219421, 0.0, 0.0, 0.05337410218937513, 0.03625109053028957, 0.0, -0.011989716170848045, 0.0, 0.04067635762169165, 0.023885671433735805, -0.0013565579471823028, 0.0, 0.0, 0.0, 0.01625045355623021, -0.001523177546196845, 0.0, -0.024094308393460023, 0.0, -0.03892672843415187, 0.0, 0.0, 0.0, -0.021389154654642407, 0.0, 0.0, 0.0, -0.005370182438167166, 0.023094567153759203, 0.0, 0.0, 0.0, 0.009856138078219421, 0.03439583213906474, 0.03839567224635181, 0.0, 0.0, -0.000505768184875639, -0.03858297475898862, -0.0206301791851498, 0.0, 0.0, 0.0, 0.004282594894320014, 0.02206874586997069, -0.001986333357213667, 0.041691819952008054, 0.0, 0.0, -0.012382658931906968, 0.0, 0.0, 0.0020597870801524463, 0.0, 0.005669933592791241, 0.0, -0.0059637500918975055, 0.046565002770526956, 0.0, -0.005658240468601022, 0.0, -0.007415546073227315, -0.01379925221145722, 0.010158312211693476, 0.009856138078219421, 0.00863990488032826, 0.0, 0.0, 0.0, 0.0, 0.019980723535965302, -0.004727479505210635, 0.0, 0.0033868566730506752, 0.007311818643882919, 0.0, 0.0, -0.013720727246163078, 0.0034729316779281583, -0.00462648521267694, 0.0, 0.0, 0.0005309412401096171, 0.00836808579681287, 0.0, 0.007944600170361882, -0.0018893972815337047, 0.0, 0.03408264601257851, 0.016593351809349025, 0.0, -0.008773198123389109, 0.0, -0.015133118910285357, 0.0, 0.0, 0.0, -0.0020536219702936027, -0.04034635205470413, 0.03253883205856762, 0.052427712017136266, 0.0, 0.004912200940013999, 0.0, 0.04026128660033834, 0.030806514819274447, 0.0, 0.0, -0.011215818150734302, 0.009856138078219421, 0.0, 0.0, -0.001928728698161593, -0.016607542104868863, 0.0, 0.0, -0.01738393735017247, 0.0, 0.0, -0.014425114817311737, 0.0034443469340741935, 0.0, 0.0, -0.02548985451991448, 0.019999969354823458, 0.0, 0.0034443469340741935, -0.012644167206481573, 0.014309679560060047, 0.0, 0.0, -0.050611547500952404, 0.0, 0.025528751049072495, -0.012561766778910086, 0.0, 0.0, 0.0, 0.0, -0.01261639989307494, -0.06833742141720603, 0.014072857071775406, 0.006077997374274303, -0.013871006383799098, 0.012281023677957026, 0.0, -0.004559527404975991, 0.021883158331347692, 0.0, 0.0, -0.018590190124352268, -0.014027485013266925, 0.0, 0.0, 0.0, -0.005049757373769283, 0.0026460024608608154, 0.0, 0.0019120822977328868, -0.00808803621437681, 0.04910885661578561, 0.0, 0.0, 0.013069603806522976, 0.0, -0.01379925221145722, 0.015559631341152659, 0.0004927264215456764, 0.00396277662464828, 0.00567256846609941, 0.0, 0.0, 0.0, -0.0064313817934929934, 0.0, 0.016593351809349025, -0.016439257010517003, -0.03743089736598437, 0.0, -0.017725368007140297, 0.0, -0.016268828862781762, -0.014825334975323585, -0.0001485269460533333, 0.01627905821380066, -0.04138871468952806, 0.0, 0.0, 0.05507296666185433, -0.009761093833490818, 0.00863990488032826, -0.005495671893483128, 0.0, -0.004559527404975991, 0.0, -0.008005155938087132, -0.00808803621437681, -0.05811956236721526, 0.0, 0.01791674647910374, 0.0, 0.0, -0.02176897178101978, 0.009043604916299313, 0.0, 0.0, 0.0012795593747804087, 0.025850106989610884, 0.046565002770526956, -0.00799368073529178, -0.020226001762298003, 0.0, -0.006146061082598629, 0.0, 0.0, 0.0, 0.007593794478557534, 0.0, -0.025436072246101574, 0.0, 0.0, 0.002607062606251168, 0.003549929400659892, -0.004190582698045085, 0.011577509536899282, 0.0, -0.0028738128983659826, -0.007343687377208428, -0.013560071167704984, 0.0, 0.0, 0.0, 0.03854402197107526, 0.027243448216825988, -0.04330171552426869, -0.007110605873314681, 0.0, 0.0, 0.0, 0.015559631341152659, 0.019420000474826903, 0.0068253642332813756, 0.0, 0.0, 0.0, -0.014858441577903303, 0.0, 0.0, 0.02751878437446306, -0.0054329537238940375, -0.014419361611245877, 0.0, 0.0, 0.007318342684747179, 0.0, 0.0, 0.0, 0.0, -0.004146712910712171, 0.0, 0.0, 0.0, 0.0, 0.0, -0.03901680718820986, -0.005370182438167166, 0.0, 0.005649360939344719, 0.006501201649086732, -0.042533937259714064, -0.015932055001752196, 0.0, -0.013130022160327161, 0.0, 0.0, 0.0, 0.0, 0.0, 0.0, -0.00598044216359066, 0.0034443469340741935, 0.01168785800034819, 0.0, 0.0, -0.012561766778910086, 0.0, 0.004362490579803398, -0.028821259100532667, 0.00396277662464828, 0.0015961809010575567, 0.0, 0.03253883205856762, 0.0013914850755586895, -0.013325614609157594, 0.0, 0.0, 0.006011378344352851, 0.01168785800034819, -0.0010317552559240746, -0.021086229746794895, 0.07196412126568248, 0.016207396232145076, -0.011151341631354346, 0.0019238608857662966, 0.007907948901387065, 0.0, -0.009520281061335841, 0.0, -0.03695965167593412, 0.0, -0.06988010275295571, -0.03490932912823884, -0.02756800049749613, -0.01602092493556955, 0.0, 0.0, -0.009092683850041755, -0.001287722489591797, 0.0, 0.005745409868819944, -0.019973563463647533, -0.02301875095527909, -0.011651109220063748, 0.0, 0.0, -0.01745733390233683, 0.0, 0.0, 0.017131747734485166, 0.021883158331347692, 0.004282594894320014, -0.02642931845329767, 0.0, -0.010679101540388135, 0.055895065299409456, 0.008310452910887582, -0.005104120437895697, -0.0363525689209138, 0.022181527004398384, 0.0, 0.0004656937680387399, 0.0, 0.0, 0.0, 0.014200937121609428, 0.006387161492953039, 0.0, 0.0, 0.0, 0.011346590611355522, 0.0, -0.009287253844693876, 0.0, 0.02056102115751791, 0.0, 0.017006290639257644, -0.02960326156507599, 0.00045116160675446476, 0.0, 0.0, 0.0, -0.0008788447480866574, 0.0, 0.0, -0.06574081410223559, 0.0, 0.02496167089104537, 0.020294244693997127, -0.06213799725423782, -0.0009183720730577134, -0.0007037056625418863, 0.0, 0.007509403368122751, -0.00392290661536697, 0.0, 0.0, -0.0024912955190639374, -0.015133118910285357, 0.0, 0.0, 0.0, 0.0, 0.00040370003597104987, 0.0, -0.023652183737028598, -0.015155810158639522, 0.018325426615909014, 0.0, 0.010186706386194623, 0.009570178822038127, -0.021165895228395067, 0.004358751696171619, 0.0, 0.0, 0.0, 0.0015084059072213289, 0.0, 0.0, -0.009377820702805078, 0.02056102115751791, 0.0, -0.005495671893483128, -0.016476378953678157, 0.0, 0.0, -0.019973563463647533, 0.009570178822038127, -0.010648997481192588, 0.0, 0.006851089659139707, 0.0, 0.008605232246674052, -0.023936804204304413, -0.02081620688560072, -0.009990272294548477, 0.0, -0.0010317552559240746, 0.010981860319148995, -0.004588332997950592, -0.004892210501721419, 0.02106547920236803, 0.017088089479589747, 0.01268518562824838, -0.0039220733440376515, 0.0, 0.0, 0.0022843013925339306, 0.019355058273785437, -0.01602092493556955, 0.01625045355623021, -0.008304536204680028, 0.0, 0.0, -0.008671849186030619, 0.0, 0.0, -0.01910876117015199, 0.0, 0.0, 0.0, 0.0, 0.0, -0.009092683850041755, -0.011151341631354346, 0.0, 0.00506944092249849, 0.0, -0.0021150701353879124, 0.0, -0.03868149907281875, -0.0039220733440376515, 0.0, 0.0, 0.0, 0.03421120316351858, 0.0, 0.0, -0.008079644798376959, -0.010595710071796913, 0.0, 0.0, 0.004886360014691156, -0.0008432815432098674, -0.013967743926066055, 0.0, -0.013720727246163078, 0.0, -0.019531758568055838, 0.0208517814833369, 0.0034443469340741935, 0.0, 0.031784621933671854, -0.024094308393460023, 0.0, 0.018959423565886865, 0.0, 0.0, 0.0, 0.024094607739968972, 0.011495063155685792, 0.0, 0.02358597718913149, 0.0, -0.016318946122251765, 0.0, -0.005001887086287963, 0.0, 0.0, 0.0, 0.05507296666185433, -0.004892210501721419, 0.0, 0.0, -0.021086229746794895, 0.0, 0.0, 0.0, -0.009520281061335841, 0.0, 0.0, -0.001928728698161593, 0.0, 0.0, -0.021402788329254893, -0.019386431428547755, 0.01774473219746985, 0.0, 0.0, 0.0, 0.0, -0.006257996224244465, -0.003210826616223946, 0.0, -0.008949056326535023, -0.006067005009515963, 0.018558050843225964, 0.0, 0.01396845508230972, -0.004190582698045085, 0.023757044092080987, -0.001928728698161593, 0.0, -0.014798592433270452, 0.0, -0.013085479666018562, 0.0, 0.0, 0.0, -0.007415546073227315, -0.008540860282274607, 0.008996208471839377, -0.008766460222369996, 0.0, 0.0, 0.0, 0.0, 0.0, 0.01123858233652051, 0.0, 0.01268518562824838, 0.0, 0.01707814701297827, 0.02740421450739682, 0.0002085797466953154, -0.024094308393460023, -0.0180783085089253, 0.0045844660763997395, 0.0, 0.0, 0.0, 0.017213445157473507, -0.01379925221145722, 0.001906210585865992, -0.047763420541768235, 0.0, 0.002491466119857294, 0.0013914850755586895, 0.0, 0.04787642341497216, -0.0024912955190639374, 0.0, 0.0033868566730506752, -0.014005013297758181, 0.0, -0.005049757373769283, 0.0, -0.011151341631354346, 0.0019848936683268237, 0.0, 0.017316089473527092, 0.0, 0.006458074486427787, 0.0, -0.02422176986396696, -0.006024511951579393, 0.0, -0.016564139166411026, 0.0, -0.0005447837644521622, -0.0029902329689226737, -0.012707952790641809, -0.012382658931906968, 0.0, 0.017914984186558038, 0.010704608799749184, 0.0, 0.0, 0.0, 0.0034443469340741935, 0.00892722177360289, 0.0, -0.014027356485245873, 0.0, 0.04067635762169165, 0.0, 0.004512587551837699, -0.018559615632812092, 0.0, -0.005932768106267506, 0.00863990488032826, -0.013720727246163078, -0.0013565579471823028, 0.006818667636007592, 0.0, 0.0, -0.030407143142168806, 0.0, 0.0, 0.02740421450739682, 0.0, 0.013069603806522976, 0.0, -0.009812139705046624, 0.0, -0.03383640794356156, 0.014607242007673193, 0.0, -0.013292508006577875, 0.0011057354014549175, -0.012901560582914947, 0.022858130901464865, 0.0, -0.003400434974063616, 0.0, -0.0011929951280466628, -0.012258704945537846, -0.011151341631354346, 0.0, 0.0, 0.0, 0.0, -0.01379925221145722, 0.0, -0.01733428663757308, 0.007203915120092117, 0.0, 0.0, 0.0, 0.03253883205856762, -0.018033670311842356, 0.0, -0.0013820658370386164, 0.0, 0.0, -0.015253438692954337, 0.0, -0.020226001762298003, 0.001510949425213957, -0.00808803621437681, 0.0, -0.020004715517851365, 0.0, -0.01910876117015199, 0.0, -0.015247064145345244, 0.016593351809349025, 0.0, -0.02422176986396696, 0.0, 0.0, 0.0, 0.0, 0.0, 0.0, -0.012382658931906968, 0.017327265924404704, 0.02740421450739682, 0.0, 0.0, -0.013226776612590531, 0.005454290095674735, 0.0, 0.0, 0.0, 0.0038074034147885494, -0.0077557005414667715, 0.0, 0.0, -0.004486314569561797, 0.0, 0.0, 0.0, 0.0, -0.05777585856153478, 0.010471799237183322, 0.012336313291588538, 0.003387943721556272, -0.01910876117015199, 0.0, 0.03686381198665076, 0.030217416771860493, 0.05234698119228935, 0.020294244693997127, 0.0, -0.01602092493556955, -0.0019048079940962805, -0.019760662298176582, -0.0005045888182215701, 0.0, 0.0, 0.0, 0.0, -0.006040963856110301, 0.0, 0.0, 0.0, 0.0, -0.007415546073227315, 0.0, 0.0, 0.01923129775993564, -0.039297916149321606, 0.026711624078570126, 0.0, 0.0, -0.028314037976674842, 0.0, -0.013085479666018562, 0.018325426615909014, 0.0019848936683268237, 0.0, 0.0, 0.0, 0.0, -0.003472931677928147, -0.0037143555006077865, 0.013897514826898102, -0.009419474608324326, 0.0, 0.0, 0.0, 0.0, -0.01701524264211257, 0.0, 0.0, -0.03504413034726891, -0.003313896731405413, 0.0, -0.010648997481192588, 0.04005201437087919, 0.0, 0.0, 0.0, 0.0, 0.0, 0.0, 0.0, -0.0010317552559240746, 0.0, 0.00016996220339149747, 0.0, 0.0, -0.004486314569561797, 0.0013914850755586895, 0.0, 0.0, 0.0, 0.0, -0.03698528410296245, 0.007509403368122751, 0.0, -0.007345199491071987, 0.0, 0.0, 0.0, 0.0, 0.004788349803920095, 0.014017471013476864, 0.0, 0.012389060129872747, 0.0, 0.0, -0.02907898147152298, -0.011878641383701191, 0.0005948187117560182, 0.0, 0.0, 0.0, 0.0, 0.0, 0.0026460024608608154, -0.01065916749131659, 0.0, 0.0, 0.0007137572990394615, 0.0, -0.010589153400843973, 0.0, 0.0, 0.0, 0.0, 0.024606443464901227, 0.005454290095674735, -0.009419474608324326, -0.0053749826305134, 0.0, 0.0, -0.005454290095674727, 0.020887722838503903, -0.010346500597396143, 0.031509999296292494, 0.0, -0.0042962995347384835, 0.0, 0.0, 0.06152210393380107, 0.0, 0.0, 0.0, 0.0, 0.0, 0.009874293778438974, -0.00462648521267694, -0.009520281061335841, 0.0, -0.02372782542526871, -0.001928728698161593, -0.0434600506775877, -0.006485441279139954, 0.004215475189095234, -0.009883033354571425, -0.0010317552559240746, 0.0, 0.03126303858613131, 0.011495063155685792, 0.006951467372066654, 0.0, 0.010471967552268422, 0.0, 0.0, -0.005268593237081179, 0.0, 0.0, -0.016079887408054522, 0.01582756959558721, 0.0, 0.021594862409403393, -0.009806126202656302, 0.0, 0.0008346162383061086, 0.00892722177360289, 0.0, 0.0007137572990394615, 0.0, -0.004146712910712171, 0.0, 0.0, 0.0, 0.0, 0.0, 0.003196523131765562, 0.0, 0.0, -0.011989716170848045, -0.007561163769695116, 0.02152298531176607, -0.007110605873314681, 0.0, 0.0, 0.0, 0.0, 0.03253883205856762, 0.0, 0.0, 0.0, 0.014017471013476864, 0.009476202547677207, 0.0, 0.02432426520568441, 0.0, 0.0, 0.0, 0.0, 0.0, -0.00808803621437681, -0.0020723878318196203, -0.019760662298176582, -0.009806025520363531, 0.0, 0.0005433556819129401, 0.017088089479589747, 0.0, 0.0, 0.016593351809349025, 0.0, 0.0, -0.03691561674026129, -0.02062028687708923, 0.0116186586306601, 0.017131747734485166, 0.0, -0.004146712910712171, -0.0027259288089383194, 0.009114280526865434, -0.013085479666018562, 0.0, 0.0, 0.02740421450739682, 0.0, 0.010757628466085798, 0.0, 0.0, 0.012878732844938933, -0.016491224445812618, -0.003472931677928147, 0.0, 0.0, 0.0, 0.0, 0.0, 0.0, 0.0, 0.009476202547677207, -0.049232493196108625, 0.0, -0.003087770007237046, 0.06848376575659984, 0.002545673142364401, 0.011346590611355522, 0.0, 0.01795278050511825, 0.0, -0.016501494573156087, -0.018737033695569394, 0.013211390851773783, -0.0008351372531473371, -0.005454290095674727, 0.031302581599352494, -0.02081620688560072, -0.010287891146277707, 0.0, 0.0, 0.0, -0.013085479666018562, 0.0, -0.01101495202493925, 0.025528751049072495, 0.009195996849162958, 0.0, 0.036609057872602734, -0.006786828409333573, 0.0, 0.005871613917636027, 0.003224888090610666, 0.0, -0.0013565579471823028, 0.009856138078219421, 0.0, 0.0, -0.0006497329616698297, -0.027207993907230544, 0.0, -0.004892210501721419, 0.0, 0.0, 0.0, 0.0, 0.0, 0.010760431394800042, 0.0, 0.0, 0.0, 0.0, 0.0, -0.01755126378426188, -0.005204002461539311, 0.02936748204682918, 0.011594487937815486, -0.02535382928461475, -0.00620477448616591, -0.007716604410221013, -0.022291442921193054, 0.025883640862521026, 0.0, 0.0005189147132379071, 0.0, 0.02740421450739682, -0.011993820739404262, -0.01738393735017247, 0.0, 0.0, 0.0, 0.0014912300034327604, 0.03283770664470715, 0.003082747551593266, 0.0, -0.031105560493066644, 0.0, 0.0030966842567128317, 0.0, 0.0, 0.004815794915997453, 0.0, 0.0, 0.0, 0.0, -0.007003667970626782, 0.0, -0.013967743926066055, 0.0, 0.0, 0.0, 0.0, 0.011495063155685792, 0.009322106987900371, 0.0, 0.0, 0.0, -0.010417814525406155, 0.04067635762169165, 0.0, -0.01312710240463154, 0.0, 0.0, 0.0, 0.0, -0.0030105568005272445, -0.005015013577107536, 0.009256995487884754, 0.0, 0.0, 0.0, -0.021779156633298803, 0.005306476273250238, 0.0, 0.004108670052286906, 0.0, 0.0, 0.0, -0.003472931677928147, -0.025436072246101574, -0.0024041698956922763, 0.0, -0.0020833017128855957, 0.0, -0.011200812268764926, 0.0, 0.0, 0.0, 0.0, 0.012336313291588538, 0.028790572646149024, -0.014825334975323585, -0.003210826616223946, 0.0, 0.0, 0.0, 0.0, 0.0, 0.005454290095674735, 0.0, 0.0, -0.022223096664728575, 0.04067635762169165, 0.05400084598313025, 0.0, 0.0, 0.0004656937680387399, 0.0, -0.01414405150377594, 0.012543461950710029, 0.0, 0.014139642851767593, 0.011495063155685792, 0.0007840519633826667, 0.0, 0.0, -0.01745733390233683, 0.0, 0.0, -3.705053236089141e-05, 0.003333648135883493, 0.01268518562824838, 0.0, 0.0, 0.0, 0.0, 0.0, 0.0009242003892603022, -0.00401272092015175, -0.022476273884079766, 0.0028362145629745824, 0.006172352863179758, 0.0, -0.030407143142168806, 0.0, -0.005015013577107536, 0.012543461950710029, 0.0, 0.017131747734485166, -0.0509178309003642, 0.00863990488032826, 0.0, -0.003210826616223946, 0.03404083498526271, -0.0006497329616698297, 0.0, -0.009246930544899556, 0.0, 0.0036847009669053587, -0.010816658397042992, 0.0, -0.003967052670598695, 0.02136431077173072, 0.013145398319773913, 0.0, 0.0, 0.0, 0.0, 0.0, 0.003722943005064137, -0.014858441577903303, 0.0, 0.0, 0.0, 0.0, -0.02332061664741422, -0.011513717778694256, 0.0, 0.0, 0.0, 0.028895973006791566, -0.009419474608324326, 0.0, -0.06816365115403386, -0.011715870275089368, 0.0, 0.0015961809010575567, -0.01913315417243798, -0.0013880729845400458, 0.0, 0.0, -0.013085479666018562, -0.0031618320140659522, 0.0, -0.014027485013266925, 0.0033868566730506752, 0.003196523131765562, 0.0, -0.018824382634328327, 0.0, 0.0, 0.004362490579803398, 0.006126879017694509, -0.019973563463647533, 0.008397514026206858, -0.020292822146340775, 0.0, 0.0, 0.030011403225674266, 0.0, 0.0, 0.01168785800034819, 0.02313006462969187, 0.0, 0.0, -0.022291442921193054, -0.031105560493066644, 0.034629471745577046, 0.0, 0.0, -0.006183679737347903, 0.0, 0.0, 0.0, -0.010964834387186153, 0.0, 0.0, 0.0, 0.0, 0.0, 0.0, 0.0, -0.02571308950839563, 0.0, 0.0, 0.0, -0.008254999999108842, 0.0, 0.0, -0.011993820739404262, 0.021883158331347692, 0.0, 0.0059158992366789755, -0.036843765330884626, 0.0, 0.0, 0.0, -0.001928728698161593, 0.0, 0.0, 0.005306476273250238, -0.009064285144221012, -0.013732715881695669, 0.0, 0.0, 0.028213722303948238, 0.0, 0.0, 0.0, 0.0, 0.0, 0.0, 0.0, -0.049697086439157226, 0.030953244305291092, 0.0, 0.0026460024608608154, 0.0, 0.023559138100767176, 0.0, 0.0, -0.0040041032029596085, -0.011151341631354346, 0.045429502019013246, 0.006951467372066654, 0.0, -0.0023141641859151635, 0.012543461950710029, 0.0, 0.041219729989243795, 0.0, 0.0, 0.0, 0.0, 0.0, 0.0, 0.005497477083990196, 0.012251592416429443, 0.04034874056907239, 0.0, 0.005301479186735561, 0.00863990488032826, 0.0028289305312116783, -0.02978888720986352, -0.0024984792420537525, 0.000760241329971703, 0.006387161492953039, -0.008461125430497428, 0.0, -0.023936804204304413, 0.0, -0.00848668921492783, -0.008040690408119113, 0.060295889292405765, 0.0, 0.0, 0.0005309412401096171, -0.004905910728054737, 0.0049214931006843635, -0.000505768184875639, 0.02844676449169711, 0.027252519300665617, 0.0, 0.0, 0.0, 0.0, 0.0, -0.02548985451991448, 0.020409369957214187, 0.0, 0.0, 0.0, -0.02589326508218288, -0.0020723878318196203, 0.0, -0.004190582698045085, 0.013163762432459647, 0.004020949448793276, 0.0, -0.009386342233185664, 0.0, -0.016406809114844177, -0.02361567860074652, 0.0, 0.0, -0.007009843351274697, 0.0, 0.0, 0.022554642970011942, 0.0, -0.014421085089411846, 0.0168718525267467, -0.009473379401668456, 0.0034729316779281583, 0.0005189147132379071, 0.022641940161923127, 0.0, 0.006818667636007592, 0.006387161492953039, 0.0, 0.001906210585865992, 0.0, 0.0, 0.03994270847935216, 0.0, -0.03100565329020451, 0.0]}
